digraph Tree {
node [shape=box, style="filled, rounded", color="black", fontname="helvetica"] ;
edge [fontname="helvetica"] ;
0 [label=<marital-status_Married-civ-spouse &le; 0.5<br/>gini = 0.335<br/>samples = 15186<br/>value = [11954, 3232]<br/>class = <=50K>, fillcolor="#eca36f"] ;
1 [label=<PC1 &le; 1.389<br/>gini = 0.097<br/>samples = 8273<br/>value = [7850, 423]<br/>class = <=50K>, fillcolor="#e68844"] ;
0 -> 1 [labeldistance=2.5, labelangle=45, headlabel="True"] ;
2 [label=<PC1 &le; -0.017<br/>gini = 0.068<br/>samples = 7707<br/>value = [7434, 273]<br/>class = <=50K>, fillcolor="#e68640"] ;
1 -> 2 ;
3 [label=<marital-status_Married-AF-spouse &le; 0.5<br/>gini = 0.027<br/>samples = 5023<br/>value = [4954, 69]<br/>class = <=50K>, fillcolor="#e5833c"] ;
2 -> 3 ;
4 [label=<PC3 &le; 1.439<br/>gini = 0.026<br/>samples = 5017<br/>value = [4951, 66]<br/>class = <=50K>, fillcolor="#e5833c"] ;
3 -> 4 ;
5 [label=<PC3 &le; 0.07<br/>gini = 0.021<br/>samples = 4726<br/>value = [4677, 49]<br/>class = <=50K>, fillcolor="#e5823b"] ;
4 -> 5 ;
6 [label=<native-country_Japan &le; 0.5<br/>gini = 0.011<br/>samples = 3183<br/>value = [3165, 18]<br/>class = <=50K>, fillcolor="#e5823a"] ;
5 -> 6 ;
7 [label=<native-country_Germany &le; 0.5<br/>gini = 0.011<br/>samples = 3177<br/>value = [3160, 17]<br/>class = <=50K>, fillcolor="#e5823a"] ;
6 -> 7 ;
8 [label=<occupation_Protective-serv &le; 0.5<br/>gini = 0.01<br/>samples = 3166<br/>value = [3150, 16]<br/>class = <=50K>, fillcolor="#e5823a"] ;
7 -> 8 ;
9 [label=<occupation_Exec-managerial &le; 0.5<br/>gini = 0.009<br/>samples = 3117<br/>value = [3103, 14]<br/>class = <=50K>, fillcolor="#e5823a"] ;
8 -> 9 ;
10 [label=<workclass_Federal-gov &le; 0.5<br/>gini = 0.007<br/>samples = 2939<br/>value = [2929, 10]<br/>class = <=50K>, fillcolor="#e5813a"] ;
9 -> 10 ;
11 [label=<PC4 &le; 1.404<br/>gini = 0.006<br/>samples = 2894<br/>value = [2886, 8]<br/>class = <=50K>, fillcolor="#e5813a"] ;
10 -> 11 ;
12 [label=<PC2 &le; -1.344<br/>gini = 0.004<br/>samples = 2809<br/>value = [2803, 6]<br/>class = <=50K>, fillcolor="#e58139"] ;
11 -> 12 ;
13 [label=<PC2 &le; -1.345<br/>gini = 0.041<br/>samples = 96<br/>value = [94, 2]<br/>class = <=50K>, fillcolor="#e6843d"] ;
12 -> 13 ;
14 [label=<occupation_Transport-moving &le; 0.5<br/>gini = 0.021<br/>samples = 95<br/>value = [94, 1]<br/>class = <=50K>, fillcolor="#e5823b"] ;
13 -> 14 ;
15 [label=<gini = 0.0<br/>samples = 90<br/>value = [90, 0]<br/>class = <=50K>, fillcolor="#e58139"] ;
14 -> 15 ;
16 [label=<PC2 &le; -1.598<br/>gini = 0.32<br/>samples = 5<br/>value = [4, 1]<br/>class = <=50K>, fillcolor="#eca06a"] ;
14 -> 16 ;
17 [label=<gini = 0.0<br/>samples = 4<br/>value = [4, 0]<br/>class = <=50K>, fillcolor="#e58139"] ;
16 -> 17 ;
18 [label=<gini = 0.0<br/>samples = 1<br/>value = [0, 1]<br/>class = >50K>, fillcolor="#399de5"] ;
16 -> 18 ;
19 [label=<gini = 0.0<br/>samples = 1<br/>value = [0, 1]<br/>class = >50K>, fillcolor="#399de5"] ;
13 -> 19 ;
20 [label=<PC1 &le; -0.632<br/>gini = 0.003<br/>samples = 2713<br/>value = [2709, 4]<br/>class = <=50K>, fillcolor="#e58139"] ;
12 -> 20 ;
21 [label=<gini = 0.0<br/>samples = 1799<br/>value = [1799, 0]<br/>class = <=50K>, fillcolor="#e58139"] ;
20 -> 21 ;
22 [label=<PC1 &le; -0.632<br/>gini = 0.009<br/>samples = 914<br/>value = [910, 4]<br/>class = <=50K>, fillcolor="#e5823a"] ;
20 -> 22 ;
23 [label=<gini = 0.0<br/>samples = 1<br/>value = [0, 1]<br/>class = >50K>, fillcolor="#399de5"] ;
22 -> 23 ;
24 [label=<PC2 &le; -0.08<br/>gini = 0.007<br/>samples = 913<br/>value = [910, 3]<br/>class = <=50K>, fillcolor="#e5813a"] ;
22 -> 24 ;
25 [label=<gini = 0.0<br/>samples = 550<br/>value = [550, 0]<br/>class = <=50K>, fillcolor="#e58139"] ;
24 -> 25 ;
26 [label=<PC2 &le; -0.078<br/>gini = 0.016<br/>samples = 363<br/>value = [360, 3]<br/>class = <=50K>, fillcolor="#e5823b"] ;
24 -> 26 ;
27 [label=<gini = 0.0<br/>samples = 1<br/>value = [0, 1]<br/>class = >50K>, fillcolor="#399de5"] ;
26 -> 27 ;
28 [label=<PC2 &le; 0.11<br/>gini = 0.011<br/>samples = 362<br/>value = [360, 2]<br/>class = <=50K>, fillcolor="#e5823a"] ;
26 -> 28 ;
29 [label=<PC2 &le; 0.107<br/>gini = 0.06<br/>samples = 65<br/>value = [63, 2]<br/>class = <=50K>, fillcolor="#e6853f"] ;
28 -> 29 ;
30 [label=<PC1 &le; -0.117<br/>gini = 0.031<br/>samples = 64<br/>value = [63, 1]<br/>class = <=50K>, fillcolor="#e5833c"] ;
29 -> 30 ;
31 [label=<gini = 0.0<br/>samples = 60<br/>value = [60, 0]<br/>class = <=50K>, fillcolor="#e58139"] ;
30 -> 31 ;
32 [label=<PC3 &le; -0.391<br/>gini = 0.375<br/>samples = 4<br/>value = [3, 1]<br/>class = <=50K>, fillcolor="#eeab7b"] ;
30 -> 32 ;
33 [label=<gini = 0.0<br/>samples = 3<br/>value = [3, 0]<br/>class = <=50K>, fillcolor="#e58139"] ;
32 -> 33 ;
34 [label=<gini = 0.0<br/>samples = 1<br/>value = [0, 1]<br/>class = >50K>, fillcolor="#399de5"] ;
32 -> 34 ;
35 [label=<gini = 0.0<br/>samples = 1<br/>value = [0, 1]<br/>class = >50K>, fillcolor="#399de5"] ;
29 -> 35 ;
36 [label=<gini = 0.0<br/>samples = 297<br/>value = [297, 0]<br/>class = <=50K>, fillcolor="#e58139"] ;
28 -> 36 ;
37 [label=<PC4 &le; 1.429<br/>gini = 0.046<br/>samples = 85<br/>value = [83, 2]<br/>class = <=50K>, fillcolor="#e6843e"] ;
11 -> 37 ;
38 [label=<gini = 0.0<br/>samples = 1<br/>value = [0, 1]<br/>class = >50K>, fillcolor="#399de5"] ;
37 -> 38 ;
39 [label=<occupation_Sales &le; 0.5<br/>gini = 0.024<br/>samples = 84<br/>value = [83, 1]<br/>class = <=50K>, fillcolor="#e5833b"] ;
37 -> 39 ;
40 [label=<gini = 0.0<br/>samples = 72<br/>value = [72, 0]<br/>class = <=50K>, fillcolor="#e58139"] ;
39 -> 40 ;
41 [label=<PC2 &le; -0.9<br/>gini = 0.153<br/>samples = 12<br/>value = [11, 1]<br/>class = <=50K>, fillcolor="#e78c4b"] ;
39 -> 41 ;
42 [label=<gini = 0.0<br/>samples = 1<br/>value = [0, 1]<br/>class = >50K>, fillcolor="#399de5"] ;
41 -> 42 ;
43 [label=<gini = 0.0<br/>samples = 11<br/>value = [11, 0]<br/>class = <=50K>, fillcolor="#e58139"] ;
41 -> 43 ;
44 [label=<PC3 &le; -0.018<br/>gini = 0.085<br/>samples = 45<br/>value = [43, 2]<br/>class = <=50K>, fillcolor="#e68742"] ;
10 -> 44 ;
45 [label=<occupation_Other-service &le; 0.5<br/>gini = 0.046<br/>samples = 42<br/>value = [41, 1]<br/>class = <=50K>, fillcolor="#e6843e"] ;
44 -> 45 ;
46 [label=<gini = 0.0<br/>samples = 38<br/>value = [38, 0]<br/>class = <=50K>, fillcolor="#e58139"] ;
45 -> 46 ;
47 [label=<PC2 &le; 0.148<br/>gini = 0.375<br/>samples = 4<br/>value = [3, 1]<br/>class = <=50K>, fillcolor="#eeab7b"] ;
45 -> 47 ;
48 [label=<gini = 0.0<br/>samples = 3<br/>value = [3, 0]<br/>class = <=50K>, fillcolor="#e58139"] ;
47 -> 48 ;
49 [label=<gini = 0.0<br/>samples = 1<br/>value = [0, 1]<br/>class = >50K>, fillcolor="#399de5"] ;
47 -> 49 ;
50 [label=<sex_Male &le; 0.5<br/>gini = 0.444<br/>samples = 3<br/>value = [2, 1]<br/>class = <=50K>, fillcolor="#f2c09c"] ;
44 -> 50 ;
51 [label=<gini = 0.0<br/>samples = 2<br/>value = [2, 0]<br/>class = <=50K>, fillcolor="#e58139"] ;
50 -> 51 ;
52 [label=<gini = 0.0<br/>samples = 1<br/>value = [0, 1]<br/>class = >50K>, fillcolor="#399de5"] ;
50 -> 52 ;
53 [label=<marital-status_Widowed &le; 0.5<br/>gini = 0.044<br/>samples = 178<br/>value = [174, 4]<br/>class = <=50K>, fillcolor="#e6843e"] ;
9 -> 53 ;
54 [label=<education_11th &le; 0.5<br/>gini = 0.034<br/>samples = 176<br/>value = [173, 3]<br/>class = <=50K>, fillcolor="#e5833c"] ;
53 -> 54 ;
55 [label=<education_Assoc-acdm &le; 0.5<br/>gini = 0.023<br/>samples = 172<br/>value = [170, 2]<br/>class = <=50K>, fillcolor="#e5823b"] ;
54 -> 55 ;
56 [label=<PC1 &le; -0.26<br/>gini = 0.012<br/>samples = 167<br/>value = [166, 1]<br/>class = <=50K>, fillcolor="#e5823a"] ;
55 -> 56 ;
57 [label=<gini = 0.0<br/>samples = 125<br/>value = [125, 0]<br/>class = <=50K>, fillcolor="#e58139"] ;
56 -> 57 ;
58 [label=<PC1 &le; -0.25<br/>gini = 0.046<br/>samples = 42<br/>value = [41, 1]<br/>class = <=50K>, fillcolor="#e6843e"] ;
56 -> 58 ;
59 [label=<gini = 0.0<br/>samples = 1<br/>value = [0, 1]<br/>class = >50K>, fillcolor="#399de5"] ;
58 -> 59 ;
60 [label=<gini = 0.0<br/>samples = 41<br/>value = [41, 0]<br/>class = <=50K>, fillcolor="#e58139"] ;
58 -> 60 ;
61 [label=<relationship_Own-child &le; 0.5<br/>gini = 0.32<br/>samples = 5<br/>value = [4, 1]<br/>class = <=50K>, fillcolor="#eca06a"] ;
55 -> 61 ;
62 [label=<gini = 0.0<br/>samples = 1<br/>value = [0, 1]<br/>class = >50K>, fillcolor="#399de5"] ;
61 -> 62 ;
63 [label=<gini = 0.0<br/>samples = 4<br/>value = [4, 0]<br/>class = <=50K>, fillcolor="#e58139"] ;
61 -> 63 ;
64 [label=<PC2 &le; -1.056<br/>gini = 0.375<br/>samples = 4<br/>value = [3, 1]<br/>class = <=50K>, fillcolor="#eeab7b"] ;
54 -> 64 ;
65 [label=<gini = 0.0<br/>samples = 1<br/>value = [0, 1]<br/>class = >50K>, fillcolor="#399de5"] ;
64 -> 65 ;
66 [label=<gini = 0.0<br/>samples = 3<br/>value = [3, 0]<br/>class = <=50K>, fillcolor="#e58139"] ;
64 -> 66 ;
67 [label=<PC4 &le; -0.409<br/>gini = 0.5<br/>samples = 2<br/>value = [1, 1]<br/>class = <=50K>, fillcolor="#ffffff"] ;
53 -> 67 ;
68 [label=<gini = 0.0<br/>samples = 1<br/>value = [1, 0]<br/>class = <=50K>, fillcolor="#e58139"] ;
67 -> 68 ;
69 [label=<gini = 0.0<br/>samples = 1<br/>value = [0, 1]<br/>class = >50K>, fillcolor="#399de5"] ;
67 -> 69 ;
70 [label=<PC2 &le; 0.543<br/>gini = 0.078<br/>samples = 49<br/>value = [47, 2]<br/>class = <=50K>, fillcolor="#e68641"] ;
8 -> 70 ;
71 [label=<gini = 0.0<br/>samples = 32<br/>value = [32, 0]<br/>class = <=50K>, fillcolor="#e58139"] ;
70 -> 71 ;
72 [label=<PC2 &le; 0.682<br/>gini = 0.208<br/>samples = 17<br/>value = [15, 2]<br/>class = <=50K>, fillcolor="#e89253"] ;
70 -> 72 ;
73 [label=<gini = 0.0<br/>samples = 2<br/>value = [0, 2]<br/>class = >50K>, fillcolor="#399de5"] ;
72 -> 73 ;
74 [label=<gini = 0.0<br/>samples = 15<br/>value = [15, 0]<br/>class = <=50K>, fillcolor="#e58139"] ;
72 -> 74 ;
75 [label=<occupation_Prof-specialty &le; 0.5<br/>gini = 0.165<br/>samples = 11<br/>value = [10, 1]<br/>class = <=50K>, fillcolor="#e88e4d"] ;
7 -> 75 ;
76 [label=<gini = 0.0<br/>samples = 10<br/>value = [10, 0]<br/>class = <=50K>, fillcolor="#e58139"] ;
75 -> 76 ;
77 [label=<gini = 0.0<br/>samples = 1<br/>value = [0, 1]<br/>class = >50K>, fillcolor="#399de5"] ;
75 -> 77 ;
78 [label=<PC1 &le; -0.256<br/>gini = 0.278<br/>samples = 6<br/>value = [5, 1]<br/>class = <=50K>, fillcolor="#ea9a61"] ;
6 -> 78 ;
79 [label=<gini = 0.0<br/>samples = 5<br/>value = [5, 0]<br/>class = <=50K>, fillcolor="#e58139"] ;
78 -> 79 ;
80 [label=<gini = 0.0<br/>samples = 1<br/>value = [0, 1]<br/>class = >50K>, fillcolor="#399de5"] ;
78 -> 80 ;
81 [label=<PC3 &le; 0.07<br/>gini = 0.039<br/>samples = 1543<br/>value = [1512, 31]<br/>class = <=50K>, fillcolor="#e6843d"] ;
5 -> 81 ;
82 [label=<gini = 0.0<br/>samples = 1<br/>value = [0, 1]<br/>class = >50K>, fillcolor="#399de5"] ;
81 -> 82 ;
83 [label=<PC1 &le; -1.036<br/>gini = 0.038<br/>samples = 1542<br/>value = [1512, 30]<br/>class = <=50K>, fillcolor="#e6843d"] ;
81 -> 83 ;
84 [label=<occupation_Transport-moving &le; 0.5<br/>gini = 0.007<br/>samples = 575<br/>value = [573, 2]<br/>class = <=50K>, fillcolor="#e5813a"] ;
83 -> 84 ;
85 [label=<occupation_Craft-repair &le; 0.5<br/>gini = 0.004<br/>samples = 547<br/>value = [546, 1]<br/>class = <=50K>, fillcolor="#e58139"] ;
84 -> 85 ;
86 [label=<gini = 0.0<br/>samples = 459<br/>value = [459, 0]<br/>class = <=50K>, fillcolor="#e58139"] ;
85 -> 86 ;
87 [label=<PC3 &le; 1.003<br/>gini = 0.022<br/>samples = 88<br/>value = [87, 1]<br/>class = <=50K>, fillcolor="#e5823b"] ;
85 -> 87 ;
88 [label=<gini = 0.0<br/>samples = 73<br/>value = [73, 0]<br/>class = <=50K>, fillcolor="#e58139"] ;
87 -> 88 ;
89 [label=<PC3 &le; 1.049<br/>gini = 0.124<br/>samples = 15<br/>value = [14, 1]<br/>class = <=50K>, fillcolor="#e78a47"] ;
87 -> 89 ;
90 [label=<gini = 0.0<br/>samples = 1<br/>value = [0, 1]<br/>class = >50K>, fillcolor="#399de5"] ;
89 -> 90 ;
91 [label=<gini = 0.0<br/>samples = 14<br/>value = [14, 0]<br/>class = <=50K>, fillcolor="#e58139"] ;
89 -> 91 ;
92 [label=<PC4 &le; 1.08<br/>gini = 0.069<br/>samples = 28<br/>value = [27, 1]<br/>class = <=50K>, fillcolor="#e68640"] ;
84 -> 92 ;
93 [label=<gini = 0.0<br/>samples = 25<br/>value = [25, 0]<br/>class = <=50K>, fillcolor="#e58139"] ;
92 -> 93 ;
94 [label=<PC4 &le; 1.103<br/>gini = 0.444<br/>samples = 3<br/>value = [2, 1]<br/>class = <=50K>, fillcolor="#f2c09c"] ;
92 -> 94 ;
95 [label=<gini = 0.0<br/>samples = 1<br/>value = [0, 1]<br/>class = >50K>, fillcolor="#399de5"] ;
94 -> 95 ;
96 [label=<gini = 0.0<br/>samples = 2<br/>value = [2, 0]<br/>class = <=50K>, fillcolor="#e58139"] ;
94 -> 96 ;
97 [label=<PC1 &le; -1.034<br/>gini = 0.056<br/>samples = 967<br/>value = [939, 28]<br/>class = <=50K>, fillcolor="#e6853f"] ;
83 -> 97 ;
98 [label=<gini = 0.0<br/>samples = 1<br/>value = [0, 1]<br/>class = >50K>, fillcolor="#399de5"] ;
97 -> 98 ;
99 [label=<occupation_Protective-serv &le; 0.5<br/>gini = 0.054<br/>samples = 966<br/>value = [939, 27]<br/>class = <=50K>, fillcolor="#e6853f"] ;
97 -> 99 ;
100 [label=<education_9th &le; 0.5<br/>gini = 0.049<br/>samples = 948<br/>value = [924, 24]<br/>class = <=50K>, fillcolor="#e6843e"] ;
99 -> 100 ;
101 [label=<PC4 &le; -0.573<br/>gini = 0.046<br/>samples = 934<br/>value = [912, 22]<br/>class = <=50K>, fillcolor="#e6843e"] ;
100 -> 101 ;
102 [label=<PC4 &le; -0.575<br/>gini = 0.092<br/>samples = 187<br/>value = [178, 9]<br/>class = <=50K>, fillcolor="#e68743"] ;
101 -> 102 ;
103 [label=<PC1 &le; -1.012<br/>gini = 0.082<br/>samples = 186<br/>value = [178, 8]<br/>class = <=50K>, fillcolor="#e68742"] ;
102 -> 103 ;
104 [label=<education_Assoc-acdm &le; 0.5<br/>gini = 0.5<br/>samples = 2<br/>value = [1, 1]<br/>class = <=50K>, fillcolor="#ffffff"] ;
103 -> 104 ;
105 [label=<gini = 0.0<br/>samples = 1<br/>value = [0, 1]<br/>class = >50K>, fillcolor="#399de5"] ;
104 -> 105 ;
106 [label=<gini = 0.0<br/>samples = 1<br/>value = [1, 0]<br/>class = <=50K>, fillcolor="#e58139"] ;
104 -> 106 ;
107 [label=<marital-status_Widowed &le; 0.5<br/>gini = 0.073<br/>samples = 184<br/>value = [177, 7]<br/>class = <=50K>, fillcolor="#e68641"] ;
103 -> 107 ;
108 [label=<workclass_Federal-gov &le; 0.5<br/>gini = 0.056<br/>samples = 174<br/>value = [169, 5]<br/>class = <=50K>, fillcolor="#e6853f"] ;
107 -> 108 ;
109 [label=<PC3 &le; 0.128<br/>gini = 0.046<br/>samples = 169<br/>value = [165, 4]<br/>class = <=50K>, fillcolor="#e6843e"] ;
108 -> 109 ;
110 [label=<PC2 &le; 1.815<br/>gini = 0.278<br/>samples = 6<br/>value = [5, 1]<br/>class = <=50K>, fillcolor="#ea9a61"] ;
109 -> 110 ;
111 [label=<gini = 0.0<br/>samples = 5<br/>value = [5, 0]<br/>class = <=50K>, fillcolor="#e58139"] ;
110 -> 111 ;
112 [label=<gini = 0.0<br/>samples = 1<br/>value = [0, 1]<br/>class = >50K>, fillcolor="#399de5"] ;
110 -> 112 ;
113 [label=<education_Masters &le; 0.5<br/>gini = 0.036<br/>samples = 163<br/>value = [160, 3]<br/>class = <=50K>, fillcolor="#e5833d"] ;
109 -> 113 ;
114 [label=<occupation_Sales &le; 0.5<br/>gini = 0.025<br/>samples = 157<br/>value = [155, 2]<br/>class = <=50K>, fillcolor="#e5833c"] ;
113 -> 114 ;
115 [label=<occupation_Other-service &le; 0.5<br/>gini = 0.015<br/>samples = 136<br/>value = [135, 1]<br/>class = <=50K>, fillcolor="#e5823a"] ;
114 -> 115 ;
116 [label=<gini = 0.0<br/>samples = 114<br/>value = [114, 0]<br/>class = <=50K>, fillcolor="#e58139"] ;
115 -> 116 ;
117 [label=<PC3 &le; 0.351<br/>gini = 0.087<br/>samples = 22<br/>value = [21, 1]<br/>class = <=50K>, fillcolor="#e68742"] ;
115 -> 117 ;
118 [label=<PC3 &le; 0.29<br/>gini = 0.32<br/>samples = 5<br/>value = [4, 1]<br/>class = <=50K>, fillcolor="#eca06a"] ;
117 -> 118 ;
119 [label=<gini = 0.0<br/>samples = 4<br/>value = [4, 0]<br/>class = <=50K>, fillcolor="#e58139"] ;
118 -> 119 ;
120 [label=<gini = 0.0<br/>samples = 1<br/>value = [0, 1]<br/>class = >50K>, fillcolor="#399de5"] ;
118 -> 120 ;
121 [label=<gini = 0.0<br/>samples = 17<br/>value = [17, 0]<br/>class = <=50K>, fillcolor="#e58139"] ;
117 -> 121 ;
122 [label=<relationship_Unmarried &le; 0.5<br/>gini = 0.091<br/>samples = 21<br/>value = [20, 1]<br/>class = <=50K>, fillcolor="#e68743"] ;
114 -> 122 ;
123 [label=<gini = 0.0<br/>samples = 17<br/>value = [17, 0]<br/>class = <=50K>, fillcolor="#e58139"] ;
122 -> 123 ;
124 [label=<PC2 &le; 1.43<br/>gini = 0.375<br/>samples = 4<br/>value = [3, 1]<br/>class = <=50K>, fillcolor="#eeab7b"] ;
122 -> 124 ;
125 [label=<gini = 0.0<br/>samples = 3<br/>value = [3, 0]<br/>class = <=50K>, fillcolor="#e58139"] ;
124 -> 125 ;
126 [label=<gini = 0.0<br/>samples = 1<br/>value = [0, 1]<br/>class = >50K>, fillcolor="#399de5"] ;
124 -> 126 ;
127 [label=<PC4 &le; -1.592<br/>gini = 0.278<br/>samples = 6<br/>value = [5, 1]<br/>class = <=50K>, fillcolor="#ea9a61"] ;
113 -> 127 ;
128 [label=<gini = 0.0<br/>samples = 4<br/>value = [4, 0]<br/>class = <=50K>, fillcolor="#e58139"] ;
127 -> 128 ;
129 [label=<PC1 &le; -0.179<br/>gini = 0.5<br/>samples = 2<br/>value = [1, 1]<br/>class = <=50K>, fillcolor="#ffffff"] ;
127 -> 129 ;
130 [label=<gini = 0.0<br/>samples = 1<br/>value = [0, 1]<br/>class = >50K>, fillcolor="#399de5"] ;
129 -> 130 ;
131 [label=<gini = 0.0<br/>samples = 1<br/>value = [1, 0]<br/>class = <=50K>, fillcolor="#e58139"] ;
129 -> 131 ;
132 [label=<education_Assoc-voc &le; 0.5<br/>gini = 0.32<br/>samples = 5<br/>value = [4, 1]<br/>class = <=50K>, fillcolor="#eca06a"] ;
108 -> 132 ;
133 [label=<gini = 0.0<br/>samples = 4<br/>value = [4, 0]<br/>class = <=50K>, fillcolor="#e58139"] ;
132 -> 133 ;
134 [label=<gini = 0.0<br/>samples = 1<br/>value = [0, 1]<br/>class = >50K>, fillcolor="#399de5"] ;
132 -> 134 ;
135 [label=<occupation_Sales &le; 0.5<br/>gini = 0.32<br/>samples = 10<br/>value = [8, 2]<br/>class = <=50K>, fillcolor="#eca06a"] ;
107 -> 135 ;
136 [label=<gini = 0.0<br/>samples = 7<br/>value = [7, 0]<br/>class = <=50K>, fillcolor="#e58139"] ;
135 -> 136 ;
137 [label=<PC2 &le; -1.683<br/>gini = 0.444<br/>samples = 3<br/>value = [1, 2]<br/>class = >50K>, fillcolor="#9ccef2"] ;
135 -> 137 ;
138 [label=<gini = 0.0<br/>samples = 2<br/>value = [0, 2]<br/>class = >50K>, fillcolor="#399de5"] ;
137 -> 138 ;
139 [label=<gini = 0.0<br/>samples = 1<br/>value = [1, 0]<br/>class = <=50K>, fillcolor="#e58139"] ;
137 -> 139 ;
140 [label=<gini = 0.0<br/>samples = 1<br/>value = [0, 1]<br/>class = >50K>, fillcolor="#399de5"] ;
102 -> 140 ;
141 [label=<PC3 &le; 0.093<br/>gini = 0.034<br/>samples = 747<br/>value = [734, 13]<br/>class = <=50K>, fillcolor="#e5833d"] ;
101 -> 141 ;
142 [label=<PC3 &le; 0.09<br/>gini = 0.18<br/>samples = 20<br/>value = [18, 2]<br/>class = <=50K>, fillcolor="#e88f4f"] ;
141 -> 142 ;
143 [label=<workclass_Local-gov &le; 0.5<br/>gini = 0.1<br/>samples = 19<br/>value = [18, 1]<br/>class = <=50K>, fillcolor="#e68844"] ;
142 -> 143 ;
144 [label=<gini = 0.0<br/>samples = 17<br/>value = [17, 0]<br/>class = <=50K>, fillcolor="#e58139"] ;
143 -> 144 ;
145 [label=<marital-status_Never-married &le; 0.5<br/>gini = 0.5<br/>samples = 2<br/>value = [1, 1]<br/>class = <=50K>, fillcolor="#ffffff"] ;
143 -> 145 ;
146 [label=<gini = 0.0<br/>samples = 1<br/>value = [0, 1]<br/>class = >50K>, fillcolor="#399de5"] ;
145 -> 146 ;
147 [label=<gini = 0.0<br/>samples = 1<br/>value = [1, 0]<br/>class = <=50K>, fillcolor="#e58139"] ;
145 -> 147 ;
148 [label=<gini = 0.0<br/>samples = 1<br/>value = [0, 1]<br/>class = >50K>, fillcolor="#399de5"] ;
142 -> 148 ;
149 [label=<occupation_Tech-support &le; 0.5<br/>gini = 0.03<br/>samples = 727<br/>value = [716, 11]<br/>class = <=50K>, fillcolor="#e5833c"] ;
141 -> 149 ;
150 [label=<occupation_Prof-specialty &le; 0.5<br/>gini = 0.025<br/>samples = 705<br/>value = [696, 9]<br/>class = <=50K>, fillcolor="#e5833c"] ;
149 -> 150 ;
151 [label=<occupation_Exec-managerial &le; 0.5<br/>gini = 0.02<br/>samples = 679<br/>value = [672, 7]<br/>class = <=50K>, fillcolor="#e5823b"] ;
150 -> 151 ;
152 [label=<PC2 &le; 0.911<br/>gini = 0.013<br/>samples = 615<br/>value = [611, 4]<br/>class = <=50K>, fillcolor="#e5823a"] ;
151 -> 152 ;
153 [label=<marital-status_Married-spouse-absent &le; 0.5<br/>gini = 0.007<br/>samples = 550<br/>value = [548, 2]<br/>class = <=50K>, fillcolor="#e5813a"] ;
152 -> 153 ;
154 [label=<relationship_Own-child &le; 0.5<br/>gini = 0.004<br/>samples = 524<br/>value = [523, 1]<br/>class = <=50K>, fillcolor="#e58139"] ;
153 -> 154 ;
155 [label=<gini = 0.0<br/>samples = 456<br/>value = [456, 0]<br/>class = <=50K>, fillcolor="#e58139"] ;
154 -> 155 ;
156 [label=<PC3 &le; 0.271<br/>gini = 0.029<br/>samples = 68<br/>value = [67, 1]<br/>class = <=50K>, fillcolor="#e5833c"] ;
154 -> 156 ;
157 [label=<PC3 &le; 0.262<br/>gini = 0.133<br/>samples = 14<br/>value = [13, 1]<br/>class = <=50K>, fillcolor="#e78b48"] ;
156 -> 157 ;
158 [label=<gini = 0.0<br/>samples = 13<br/>value = [13, 0]<br/>class = <=50K>, fillcolor="#e58139"] ;
157 -> 158 ;
159 [label=<gini = 0.0<br/>samples = 1<br/>value = [0, 1]<br/>class = >50K>, fillcolor="#399de5"] ;
157 -> 159 ;
160 [label=<gini = 0.0<br/>samples = 54<br/>value = [54, 0]<br/>class = <=50K>, fillcolor="#e58139"] ;
156 -> 160 ;
161 [label=<occupation_Craft-repair &le; 0.5<br/>gini = 0.074<br/>samples = 26<br/>value = [25, 1]<br/>class = <=50K>, fillcolor="#e68641"] ;
153 -> 161 ;
162 [label=<gini = 0.0<br/>samples = 18<br/>value = [18, 0]<br/>class = <=50K>, fillcolor="#e58139"] ;
161 -> 162 ;
163 [label=<PC1 &le; -0.552<br/>gini = 0.219<br/>samples = 8<br/>value = [7, 1]<br/>class = <=50K>, fillcolor="#e99355"] ;
161 -> 163 ;
164 [label=<PC1 &le; -0.767<br/>gini = 0.444<br/>samples = 3<br/>value = [2, 1]<br/>class = <=50K>, fillcolor="#f2c09c"] ;
163 -> 164 ;
165 [label=<gini = 0.0<br/>samples = 2<br/>value = [2, 0]<br/>class = <=50K>, fillcolor="#e58139"] ;
164 -> 165 ;
166 [label=<gini = 0.0<br/>samples = 1<br/>value = [0, 1]<br/>class = >50K>, fillcolor="#399de5"] ;
164 -> 166 ;
167 [label=<gini = 0.0<br/>samples = 5<br/>value = [5, 0]<br/>class = <=50K>, fillcolor="#e58139"] ;
163 -> 167 ;
168 [label=<PC2 &le; 0.92<br/>gini = 0.06<br/>samples = 65<br/>value = [63, 2]<br/>class = <=50K>, fillcolor="#e6853f"] ;
152 -> 168 ;
169 [label=<gini = 0.0<br/>samples = 1<br/>value = [0, 1]<br/>class = >50K>, fillcolor="#399de5"] ;
168 -> 169 ;
170 [label=<workclass_Self-emp-not-inc &le; 0.5<br/>gini = 0.031<br/>samples = 64<br/>value = [63, 1]<br/>class = <=50K>, fillcolor="#e5833c"] ;
168 -> 170 ;
171 [label=<gini = 0.0<br/>samples = 62<br/>value = [62, 0]<br/>class = <=50K>, fillcolor="#e58139"] ;
170 -> 171 ;
172 [label=<PC2 &le; 2.024<br/>gini = 0.5<br/>samples = 2<br/>value = [1, 1]<br/>class = <=50K>, fillcolor="#ffffff"] ;
170 -> 172 ;
173 [label=<gini = 0.0<br/>samples = 1<br/>value = [0, 1]<br/>class = >50K>, fillcolor="#399de5"] ;
172 -> 173 ;
174 [label=<gini = 0.0<br/>samples = 1<br/>value = [1, 0]<br/>class = <=50K>, fillcolor="#e58139"] ;
172 -> 174 ;
175 [label=<PC1 &le; -0.966<br/>gini = 0.089<br/>samples = 64<br/>value = [61, 3]<br/>class = <=50K>, fillcolor="#e68743"] ;
151 -> 175 ;
176 [label=<sex_Male &le; 0.5<br/>gini = 0.444<br/>samples = 3<br/>value = [2, 1]<br/>class = <=50K>, fillcolor="#f2c09c"] ;
175 -> 176 ;
177 [label=<gini = 0.0<br/>samples = 1<br/>value = [0, 1]<br/>class = >50K>, fillcolor="#399de5"] ;
176 -> 177 ;
178 [label=<gini = 0.0<br/>samples = 2<br/>value = [2, 0]<br/>class = <=50K>, fillcolor="#e58139"] ;
176 -> 178 ;
179 [label=<PC2 &le; -0.736<br/>gini = 0.063<br/>samples = 61<br/>value = [59, 2]<br/>class = <=50K>, fillcolor="#e68540"] ;
175 -> 179 ;
180 [label=<race_Black &le; 0.5<br/>gini = 0.278<br/>samples = 12<br/>value = [10, 2]<br/>class = <=50K>, fillcolor="#ea9a61"] ;
179 -> 180 ;
181 [label=<workclass_State-gov &le; 0.5<br/>gini = 0.165<br/>samples = 11<br/>value = [10, 1]<br/>class = <=50K>, fillcolor="#e88e4d"] ;
180 -> 181 ;
182 [label=<gini = 0.0<br/>samples = 10<br/>value = [10, 0]<br/>class = <=50K>, fillcolor="#e58139"] ;
181 -> 182 ;
183 [label=<gini = 0.0<br/>samples = 1<br/>value = [0, 1]<br/>class = >50K>, fillcolor="#399de5"] ;
181 -> 183 ;
184 [label=<gini = 0.0<br/>samples = 1<br/>value = [0, 1]<br/>class = >50K>, fillcolor="#399de5"] ;
180 -> 184 ;
185 [label=<gini = 0.0<br/>samples = 49<br/>value = [49, 0]<br/>class = <=50K>, fillcolor="#e58139"] ;
179 -> 185 ;
186 [label=<PC4 &le; 0.719<br/>gini = 0.142<br/>samples = 26<br/>value = [24, 2]<br/>class = <=50K>, fillcolor="#e78c49"] ;
150 -> 186 ;
187 [label=<relationship_Own-child &le; 0.5<br/>gini = 0.077<br/>samples = 25<br/>value = [24, 1]<br/>class = <=50K>, fillcolor="#e68641"] ;
186 -> 187 ;
188 [label=<gini = 0.0<br/>samples = 23<br/>value = [23, 0]<br/>class = <=50K>, fillcolor="#e58139"] ;
187 -> 188 ;
189 [label=<marital-status_Never-married &le; 0.5<br/>gini = 0.5<br/>samples = 2<br/>value = [1, 1]<br/>class = <=50K>, fillcolor="#ffffff"] ;
187 -> 189 ;
190 [label=<gini = 0.0<br/>samples = 1<br/>value = [0, 1]<br/>class = >50K>, fillcolor="#399de5"] ;
189 -> 190 ;
191 [label=<gini = 0.0<br/>samples = 1<br/>value = [1, 0]<br/>class = <=50K>, fillcolor="#e58139"] ;
189 -> 191 ;
192 [label=<gini = 0.0<br/>samples = 1<br/>value = [0, 1]<br/>class = >50K>, fillcolor="#399de5"] ;
186 -> 192 ;
193 [label=<PC1 &le; -0.121<br/>gini = 0.165<br/>samples = 22<br/>value = [20, 2]<br/>class = <=50K>, fillcolor="#e88e4d"] ;
149 -> 193 ;
194 [label=<PC3 &le; 0.178<br/>gini = 0.091<br/>samples = 21<br/>value = [20, 1]<br/>class = <=50K>, fillcolor="#e68743"] ;
193 -> 194 ;
195 [label=<PC2 &le; 0.266<br/>gini = 0.375<br/>samples = 4<br/>value = [3, 1]<br/>class = <=50K>, fillcolor="#eeab7b"] ;
194 -> 195 ;
196 [label=<gini = 0.0<br/>samples = 1<br/>value = [0, 1]<br/>class = >50K>, fillcolor="#399de5"] ;
195 -> 196 ;
197 [label=<gini = 0.0<br/>samples = 3<br/>value = [3, 0]<br/>class = <=50K>, fillcolor="#e58139"] ;
195 -> 197 ;
198 [label=<gini = 0.0<br/>samples = 17<br/>value = [17, 0]<br/>class = <=50K>, fillcolor="#e58139"] ;
194 -> 198 ;
199 [label=<gini = 0.0<br/>samples = 1<br/>value = [0, 1]<br/>class = >50K>, fillcolor="#399de5"] ;
193 -> 199 ;
200 [label=<PC1 &le; -0.976<br/>gini = 0.245<br/>samples = 14<br/>value = [12, 2]<br/>class = <=50K>, fillcolor="#e9965a"] ;
100 -> 200 ;
201 [label=<gini = 0.0<br/>samples = 1<br/>value = [0, 1]<br/>class = >50K>, fillcolor="#399de5"] ;
200 -> 201 ;
202 [label=<occupation_Craft-repair &le; 0.5<br/>gini = 0.142<br/>samples = 13<br/>value = [12, 1]<br/>class = <=50K>, fillcolor="#e78c49"] ;
200 -> 202 ;
203 [label=<gini = 0.0<br/>samples = 10<br/>value = [10, 0]<br/>class = <=50K>, fillcolor="#e58139"] ;
202 -> 203 ;
204 [label=<PC1 &le; -0.651<br/>gini = 0.444<br/>samples = 3<br/>value = [2, 1]<br/>class = <=50K>, fillcolor="#f2c09c"] ;
202 -> 204 ;
205 [label=<gini = 0.0<br/>samples = 1<br/>value = [0, 1]<br/>class = >50K>, fillcolor="#399de5"] ;
204 -> 205 ;
206 [label=<gini = 0.0<br/>samples = 2<br/>value = [2, 0]<br/>class = <=50K>, fillcolor="#e58139"] ;
204 -> 206 ;
207 [label=<PC3 &le; 0.341<br/>gini = 0.278<br/>samples = 18<br/>value = [15, 3]<br/>class = <=50K>, fillcolor="#ea9a61"] ;
99 -> 207 ;
208 [label=<PC1 &le; -0.425<br/>gini = 0.5<br/>samples = 6<br/>value = [3, 3]<br/>class = <=50K>, fillcolor="#ffffff"] ;
207 -> 208 ;
209 [label=<gini = 0.0<br/>samples = 2<br/>value = [2, 0]<br/>class = <=50K>, fillcolor="#e58139"] ;
208 -> 209 ;
210 [label=<PC2 &le; 1.173<br/>gini = 0.375<br/>samples = 4<br/>value = [1, 3]<br/>class = >50K>, fillcolor="#7bbeee"] ;
208 -> 210 ;
211 [label=<gini = 0.0<br/>samples = 3<br/>value = [0, 3]<br/>class = >50K>, fillcolor="#399de5"] ;
210 -> 211 ;
212 [label=<gini = 0.0<br/>samples = 1<br/>value = [1, 0]<br/>class = <=50K>, fillcolor="#e58139"] ;
210 -> 212 ;
213 [label=<gini = 0.0<br/>samples = 12<br/>value = [12, 0]<br/>class = <=50K>, fillcolor="#e58139"] ;
207 -> 213 ;
214 [label=<occupation_Prof-specialty &le; 0.5<br/>gini = 0.11<br/>samples = 291<br/>value = [274, 17]<br/>class = <=50K>, fillcolor="#e78945"] ;
4 -> 214 ;
215 [label=<PC3 &le; 1.44<br/>gini = 0.083<br/>samples = 278<br/>value = [266, 12]<br/>class = <=50K>, fillcolor="#e68742"] ;
214 -> 215 ;
216 [label=<gini = 0.0<br/>samples = 1<br/>value = [0, 1]<br/>class = >50K>, fillcolor="#399de5"] ;
215 -> 216 ;
217 [label=<occupation_Protective-serv &le; 0.5<br/>gini = 0.076<br/>samples = 277<br/>value = [266, 11]<br/>class = <=50K>, fillcolor="#e68641"] ;
215 -> 217 ;
218 [label=<PC3 &le; 2.645<br/>gini = 0.064<br/>samples = 271<br/>value = [262, 9]<br/>class = <=50K>, fillcolor="#e68540"] ;
217 -> 218 ;
219 [label=<occupation_Exec-managerial &le; 0.5<br/>gini = 0.046<br/>samples = 257<br/>value = [251, 6]<br/>class = <=50K>, fillcolor="#e6843e"] ;
218 -> 219 ;
220 [label=<occupation_Adm-clerical &le; 0.5<br/>gini = 0.033<br/>samples = 238<br/>value = [234, 4]<br/>class = <=50K>, fillcolor="#e5833c"] ;
219 -> 220 ;
221 [label=<education_Some-college &le; 0.5<br/>gini = 0.012<br/>samples = 172<br/>value = [171, 1]<br/>class = <=50K>, fillcolor="#e5823a"] ;
220 -> 221 ;
222 [label=<gini = 0.0<br/>samples = 146<br/>value = [146, 0]<br/>class = <=50K>, fillcolor="#e58139"] ;
221 -> 222 ;
223 [label=<relationship_Unmarried &le; 0.5<br/>gini = 0.074<br/>samples = 26<br/>value = [25, 1]<br/>class = <=50K>, fillcolor="#e68641"] ;
221 -> 223 ;
224 [label=<gini = 0.0<br/>samples = 23<br/>value = [23, 0]<br/>class = <=50K>, fillcolor="#e58139"] ;
223 -> 224 ;
225 [label=<occupation_Craft-repair &le; 0.5<br/>gini = 0.444<br/>samples = 3<br/>value = [2, 1]<br/>class = <=50K>, fillcolor="#f2c09c"] ;
223 -> 225 ;
226 [label=<gini = 0.0<br/>samples = 2<br/>value = [2, 0]<br/>class = <=50K>, fillcolor="#e58139"] ;
225 -> 226 ;
227 [label=<gini = 0.0<br/>samples = 1<br/>value = [0, 1]<br/>class = >50K>, fillcolor="#399de5"] ;
225 -> 227 ;
228 [label=<PC2 &le; -1.883<br/>gini = 0.087<br/>samples = 66<br/>value = [63, 3]<br/>class = <=50K>, fillcolor="#e68742"] ;
220 -> 228 ;
229 [label=<gini = 0.0<br/>samples = 1<br/>value = [0, 1]<br/>class = >50K>, fillcolor="#399de5"] ;
228 -> 229 ;
230 [label=<PC2 &le; 1.246<br/>gini = 0.06<br/>samples = 65<br/>value = [63, 2]<br/>class = <=50K>, fillcolor="#e6853f"] ;
228 -> 230 ;
231 [label=<PC4 &le; 0.727<br/>gini = 0.032<br/>samples = 62<br/>value = [61, 1]<br/>class = <=50K>, fillcolor="#e5833c"] ;
230 -> 231 ;
232 [label=<gini = 0.0<br/>samples = 58<br/>value = [58, 0]<br/>class = <=50K>, fillcolor="#e58139"] ;
231 -> 232 ;
233 [label=<PC4 &le; 0.748<br/>gini = 0.375<br/>samples = 4<br/>value = [3, 1]<br/>class = <=50K>, fillcolor="#eeab7b"] ;
231 -> 233 ;
234 [label=<gini = 0.0<br/>samples = 1<br/>value = [0, 1]<br/>class = >50K>, fillcolor="#399de5"] ;
233 -> 234 ;
235 [label=<gini = 0.0<br/>samples = 3<br/>value = [3, 0]<br/>class = <=50K>, fillcolor="#e58139"] ;
233 -> 235 ;
236 [label=<PC2 &le; 1.417<br/>gini = 0.444<br/>samples = 3<br/>value = [2, 1]<br/>class = <=50K>, fillcolor="#f2c09c"] ;
230 -> 236 ;
237 [label=<gini = 0.0<br/>samples = 1<br/>value = [0, 1]<br/>class = >50K>, fillcolor="#399de5"] ;
236 -> 237 ;
238 [label=<gini = 0.0<br/>samples = 2<br/>value = [2, 0]<br/>class = <=50K>, fillcolor="#e58139"] ;
236 -> 238 ;
239 [label=<PC3 &le; 1.565<br/>gini = 0.188<br/>samples = 19<br/>value = [17, 2]<br/>class = <=50K>, fillcolor="#e89050"] ;
219 -> 239 ;
240 [label=<PC4 &le; -0.278<br/>gini = 0.5<br/>samples = 2<br/>value = [1, 1]<br/>class = <=50K>, fillcolor="#ffffff"] ;
239 -> 240 ;
241 [label=<gini = 0.0<br/>samples = 1<br/>value = [1, 0]<br/>class = <=50K>, fillcolor="#e58139"] ;
240 -> 241 ;
242 [label=<gini = 0.0<br/>samples = 1<br/>value = [0, 1]<br/>class = >50K>, fillcolor="#399de5"] ;
240 -> 242 ;
243 [label=<PC3 &le; 2.17<br/>gini = 0.111<br/>samples = 17<br/>value = [16, 1]<br/>class = <=50K>, fillcolor="#e78945"] ;
239 -> 243 ;
244 [label=<gini = 0.0<br/>samples = 15<br/>value = [15, 0]<br/>class = <=50K>, fillcolor="#e58139"] ;
243 -> 244 ;
245 [label=<PC3 &le; 2.241<br/>gini = 0.5<br/>samples = 2<br/>value = [1, 1]<br/>class = <=50K>, fillcolor="#ffffff"] ;
243 -> 245 ;
246 [label=<gini = 0.0<br/>samples = 1<br/>value = [0, 1]<br/>class = >50K>, fillcolor="#399de5"] ;
245 -> 246 ;
247 [label=<gini = 0.0<br/>samples = 1<br/>value = [1, 0]<br/>class = <=50K>, fillcolor="#e58139"] ;
245 -> 247 ;
248 [label=<PC3 &le; 2.681<br/>gini = 0.337<br/>samples = 14<br/>value = [11, 3]<br/>class = <=50K>, fillcolor="#eca36f"] ;
218 -> 248 ;
249 [label=<gini = 0.0<br/>samples = 2<br/>value = [0, 2]<br/>class = >50K>, fillcolor="#399de5"] ;
248 -> 249 ;
250 [label=<occupation_Sales &le; 0.5<br/>gini = 0.153<br/>samples = 12<br/>value = [11, 1]<br/>class = <=50K>, fillcolor="#e78c4b"] ;
248 -> 250 ;
251 [label=<gini = 0.0<br/>samples = 10<br/>value = [10, 0]<br/>class = <=50K>, fillcolor="#e58139"] ;
250 -> 251 ;
252 [label=<marital-status_Separated &le; 0.5<br/>gini = 0.5<br/>samples = 2<br/>value = [1, 1]<br/>class = <=50K>, fillcolor="#ffffff"] ;
250 -> 252 ;
253 [label=<gini = 0.0<br/>samples = 1<br/>value = [0, 1]<br/>class = >50K>, fillcolor="#399de5"] ;
252 -> 253 ;
254 [label=<gini = 0.0<br/>samples = 1<br/>value = [1, 0]<br/>class = <=50K>, fillcolor="#e58139"] ;
252 -> 254 ;
255 [label=<PC1 &le; -0.619<br/>gini = 0.444<br/>samples = 6<br/>value = [4, 2]<br/>class = <=50K>, fillcolor="#f2c09c"] ;
217 -> 255 ;
256 [label=<gini = 0.0<br/>samples = 2<br/>value = [0, 2]<br/>class = >50K>, fillcolor="#399de5"] ;
255 -> 256 ;
257 [label=<gini = 0.0<br/>samples = 4<br/>value = [4, 0]<br/>class = <=50K>, fillcolor="#e58139"] ;
255 -> 257 ;
258 [label=<relationship_Unmarried &le; 0.5<br/>gini = 0.473<br/>samples = 13<br/>value = [8, 5]<br/>class = <=50K>, fillcolor="#f5d0b5"] ;
214 -> 258 ;
259 [label=<workclass_Private &le; 0.5<br/>gini = 0.469<br/>samples = 8<br/>value = [3, 5]<br/>class = >50K>, fillcolor="#b0d8f5"] ;
258 -> 259 ;
260 [label=<gini = 0.0<br/>samples = 2<br/>value = [2, 0]<br/>class = <=50K>, fillcolor="#e58139"] ;
259 -> 260 ;
261 [label=<education_Assoc-voc &le; 0.5<br/>gini = 0.278<br/>samples = 6<br/>value = [1, 5]<br/>class = >50K>, fillcolor="#61b1ea"] ;
259 -> 261 ;
262 [label=<gini = 0.0<br/>samples = 5<br/>value = [0, 5]<br/>class = >50K>, fillcolor="#399de5"] ;
261 -> 262 ;
263 [label=<gini = 0.0<br/>samples = 1<br/>value = [1, 0]<br/>class = <=50K>, fillcolor="#e58139"] ;
261 -> 263 ;
264 [label=<gini = 0.0<br/>samples = 5<br/>value = [5, 0]<br/>class = <=50K>, fillcolor="#e58139"] ;
258 -> 264 ;
265 [label=<occupation_Craft-repair &le; 0.5<br/>gini = 0.5<br/>samples = 6<br/>value = [3, 3]<br/>class = <=50K>, fillcolor="#ffffff"] ;
3 -> 265 ;
266 [label=<PC1 &le; -0.249<br/>gini = 0.375<br/>samples = 4<br/>value = [3, 1]<br/>class = <=50K>, fillcolor="#eeab7b"] ;
265 -> 266 ;
267 [label=<gini = 0.0<br/>samples = 3<br/>value = [3, 0]<br/>class = <=50K>, fillcolor="#e58139"] ;
266 -> 267 ;
268 [label=<gini = 0.0<br/>samples = 1<br/>value = [0, 1]<br/>class = >50K>, fillcolor="#399de5"] ;
266 -> 268 ;
269 [label=<gini = 0.0<br/>samples = 2<br/>value = [0, 2]<br/>class = >50K>, fillcolor="#399de5"] ;
265 -> 269 ;
270 [label=<PC4 &le; -1.146<br/>gini = 0.14<br/>samples = 2684<br/>value = [2480, 204]<br/>class = <=50K>, fillcolor="#e78b49"] ;
2 -> 270 ;
271 [label=<sex_Male &le; 0.5<br/>gini = 0.256<br/>samples = 544<br/>value = [462, 82]<br/>class = <=50K>, fillcolor="#ea975c"] ;
270 -> 271 ;
272 [label=<relationship_Wife &le; 0.5<br/>gini = 0.181<br/>samples = 299<br/>value = [269, 30]<br/>class = <=50K>, fillcolor="#e88f4f"] ;
271 -> 272 ;
273 [label=<PC1 &le; 0.56<br/>gini = 0.171<br/>samples = 297<br/>value = [269, 28]<br/>class = <=50K>, fillcolor="#e88e4e"] ;
272 -> 273 ;
274 [label=<PC4 &le; -1.147<br/>gini = 0.083<br/>samples = 138<br/>value = [132, 6]<br/>class = <=50K>, fillcolor="#e68742"] ;
273 -> 274 ;
275 [label=<race_Black &le; 0.5<br/>gini = 0.07<br/>samples = 137<br/>value = [132, 5]<br/>class = <=50K>, fillcolor="#e68640"] ;
274 -> 275 ;
276 [label=<PC2 &le; 1.017<br/>gini = 0.034<br/>samples = 116<br/>value = [114, 2]<br/>class = <=50K>, fillcolor="#e5833c"] ;
275 -> 276 ;
277 [label=<gini = 0.0<br/>samples = 90<br/>value = [90, 0]<br/>class = <=50K>, fillcolor="#e58139"] ;
276 -> 277 ;
278 [label=<PC3 &le; -0.989<br/>gini = 0.142<br/>samples = 26<br/>value = [24, 2]<br/>class = <=50K>, fillcolor="#e78c49"] ;
276 -> 278 ;
279 [label=<gini = 0.0<br/>samples = 1<br/>value = [0, 1]<br/>class = >50K>, fillcolor="#399de5"] ;
278 -> 279 ;
280 [label=<PC4 &le; -1.22<br/>gini = 0.077<br/>samples = 25<br/>value = [24, 1]<br/>class = <=50K>, fillcolor="#e68641"] ;
278 -> 280 ;
281 [label=<gini = 0.0<br/>samples = 19<br/>value = [19, 0]<br/>class = <=50K>, fillcolor="#e58139"] ;
280 -> 281 ;
282 [label=<PC4 &le; -1.216<br/>gini = 0.278<br/>samples = 6<br/>value = [5, 1]<br/>class = <=50K>, fillcolor="#ea9a61"] ;
280 -> 282 ;
283 [label=<gini = 0.0<br/>samples = 1<br/>value = [0, 1]<br/>class = >50K>, fillcolor="#399de5"] ;
282 -> 283 ;
284 [label=<gini = 0.0<br/>samples = 5<br/>value = [5, 0]<br/>class = <=50K>, fillcolor="#e58139"] ;
282 -> 284 ;
285 [label=<occupation_Sales &le; 0.5<br/>gini = 0.245<br/>samples = 21<br/>value = [18, 3]<br/>class = <=50K>, fillcolor="#e9965a"] ;
275 -> 285 ;
286 [label=<workclass_Self-emp-not-inc &le; 0.5<br/>gini = 0.1<br/>samples = 19<br/>value = [18, 1]<br/>class = <=50K>, fillcolor="#e68844"] ;
285 -> 286 ;
287 [label=<gini = 0.0<br/>samples = 18<br/>value = [18, 0]<br/>class = <=50K>, fillcolor="#e58139"] ;
286 -> 287 ;
288 [label=<gini = 0.0<br/>samples = 1<br/>value = [0, 1]<br/>class = >50K>, fillcolor="#399de5"] ;
286 -> 288 ;
289 [label=<gini = 0.0<br/>samples = 2<br/>value = [0, 2]<br/>class = >50K>, fillcolor="#399de5"] ;
285 -> 289 ;
290 [label=<gini = 0.0<br/>samples = 1<br/>value = [0, 1]<br/>class = >50K>, fillcolor="#399de5"] ;
274 -> 290 ;
291 [label=<PC1 &le; 0.568<br/>gini = 0.238<br/>samples = 159<br/>value = [137, 22]<br/>class = <=50K>, fillcolor="#e99559"] ;
273 -> 291 ;
292 [label=<gini = 0.0<br/>samples = 2<br/>value = [0, 2]<br/>class = >50K>, fillcolor="#399de5"] ;
291 -> 292 ;
293 [label=<PC1 &le; 0.676<br/>gini = 0.222<br/>samples = 157<br/>value = [137, 20]<br/>class = <=50K>, fillcolor="#e99356"] ;
291 -> 293 ;
294 [label=<PC1 &le; 0.629<br/>gini = 0.408<br/>samples = 21<br/>value = [15, 6]<br/>class = <=50K>, fillcolor="#efb388"] ;
293 -> 294 ;
295 [label=<race_Black &le; 0.5<br/>gini = 0.142<br/>samples = 13<br/>value = [12, 1]<br/>class = <=50K>, fillcolor="#e78c49"] ;
294 -> 295 ;
296 [label=<gini = 0.0<br/>samples = 11<br/>value = [11, 0]<br/>class = <=50K>, fillcolor="#e58139"] ;
295 -> 296 ;
297 [label=<occupation_Exec-managerial &le; 0.5<br/>gini = 0.5<br/>samples = 2<br/>value = [1, 1]<br/>class = <=50K>, fillcolor="#ffffff"] ;
295 -> 297 ;
298 [label=<gini = 0.0<br/>samples = 1<br/>value = [1, 0]<br/>class = <=50K>, fillcolor="#e58139"] ;
297 -> 298 ;
299 [label=<gini = 0.0<br/>samples = 1<br/>value = [0, 1]<br/>class = >50K>, fillcolor="#399de5"] ;
297 -> 299 ;
300 [label=<PC1 &le; 0.65<br/>gini = 0.469<br/>samples = 8<br/>value = [3, 5]<br/>class = >50K>, fillcolor="#b0d8f5"] ;
294 -> 300 ;
301 [label=<gini = 0.0<br/>samples = 4<br/>value = [0, 4]<br/>class = >50K>, fillcolor="#399de5"] ;
300 -> 301 ;
302 [label=<occupation_Exec-managerial &le; 0.5<br/>gini = 0.375<br/>samples = 4<br/>value = [3, 1]<br/>class = <=50K>, fillcolor="#eeab7b"] ;
300 -> 302 ;
303 [label=<gini = 0.0<br/>samples = 3<br/>value = [3, 0]<br/>class = <=50K>, fillcolor="#e58139"] ;
302 -> 303 ;
304 [label=<gini = 0.0<br/>samples = 1<br/>value = [0, 1]<br/>class = >50K>, fillcolor="#399de5"] ;
302 -> 304 ;
305 [label=<education_Prof-school &le; 0.5<br/>gini = 0.185<br/>samples = 136<br/>value = [122, 14]<br/>class = <=50K>, fillcolor="#e88f50"] ;
293 -> 305 ;
306 [label=<PC4 &le; -1.178<br/>gini = 0.159<br/>samples = 126<br/>value = [115, 11]<br/>class = <=50K>, fillcolor="#e78d4c"] ;
305 -> 306 ;
307 [label=<PC2 &le; 0.485<br/>gini = 0.109<br/>samples = 104<br/>value = [98, 6]<br/>class = <=50K>, fillcolor="#e78945"] ;
306 -> 307 ;
308 [label=<PC1 &le; 1.216<br/>gini = 0.067<br/>samples = 87<br/>value = [84, 3]<br/>class = <=50K>, fillcolor="#e68640"] ;
307 -> 308 ;
309 [label=<PC1 &le; 0.724<br/>gini = 0.028<br/>samples = 70<br/>value = [69, 1]<br/>class = <=50K>, fillcolor="#e5833c"] ;
308 -> 309 ;
310 [label=<workclass_State-gov &le; 0.5<br/>gini = 0.219<br/>samples = 8<br/>value = [7, 1]<br/>class = <=50K>, fillcolor="#e99355"] ;
309 -> 310 ;
311 [label=<gini = 0.0<br/>samples = 7<br/>value = [7, 0]<br/>class = <=50K>, fillcolor="#e58139"] ;
310 -> 311 ;
312 [label=<gini = 0.0<br/>samples = 1<br/>value = [0, 1]<br/>class = >50K>, fillcolor="#399de5"] ;
310 -> 312 ;
313 [label=<gini = 0.0<br/>samples = 62<br/>value = [62, 0]<br/>class = <=50K>, fillcolor="#e58139"] ;
309 -> 313 ;
314 [label=<PC1 &le; 1.227<br/>gini = 0.208<br/>samples = 17<br/>value = [15, 2]<br/>class = <=50K>, fillcolor="#e89253"] ;
308 -> 314 ;
315 [label=<gini = 0.0<br/>samples = 1<br/>value = [0, 1]<br/>class = >50K>, fillcolor="#399de5"] ;
314 -> 315 ;
316 [label=<PC3 &le; -0.324<br/>gini = 0.117<br/>samples = 16<br/>value = [15, 1]<br/>class = <=50K>, fillcolor="#e78946"] ;
314 -> 316 ;
317 [label=<PC3 &le; -0.358<br/>gini = 0.444<br/>samples = 3<br/>value = [2, 1]<br/>class = <=50K>, fillcolor="#f2c09c"] ;
316 -> 317 ;
318 [label=<gini = 0.0<br/>samples = 2<br/>value = [2, 0]<br/>class = <=50K>, fillcolor="#e58139"] ;
317 -> 318 ;
319 [label=<gini = 0.0<br/>samples = 1<br/>value = [0, 1]<br/>class = >50K>, fillcolor="#399de5"] ;
317 -> 319 ;
320 [label=<gini = 0.0<br/>samples = 13<br/>value = [13, 0]<br/>class = <=50K>, fillcolor="#e58139"] ;
316 -> 320 ;
321 [label=<PC2 &le; 0.618<br/>gini = 0.291<br/>samples = 17<br/>value = [14, 3]<br/>class = <=50K>, fillcolor="#eb9c63"] ;
307 -> 321 ;
322 [label=<marital-status_Never-married &le; 0.5<br/>gini = 0.49<br/>samples = 7<br/>value = [4, 3]<br/>class = <=50K>, fillcolor="#f8e0ce"] ;
321 -> 322 ;
323 [label=<gini = 0.0<br/>samples = 3<br/>value = [3, 0]<br/>class = <=50K>, fillcolor="#e58139"] ;
322 -> 323 ;
324 [label=<race_White &le; 0.5<br/>gini = 0.375<br/>samples = 4<br/>value = [1, 3]<br/>class = >50K>, fillcolor="#7bbeee"] ;
322 -> 324 ;
325 [label=<gini = 0.0<br/>samples = 1<br/>value = [1, 0]<br/>class = <=50K>, fillcolor="#e58139"] ;
324 -> 325 ;
326 [label=<gini = 0.0<br/>samples = 3<br/>value = [0, 3]<br/>class = >50K>, fillcolor="#399de5"] ;
324 -> 326 ;
327 [label=<gini = 0.0<br/>samples = 10<br/>value = [10, 0]<br/>class = <=50K>, fillcolor="#e58139"] ;
321 -> 327 ;
328 [label=<PC1 &le; 0.825<br/>gini = 0.351<br/>samples = 22<br/>value = [17, 5]<br/>class = <=50K>, fillcolor="#eda673"] ;
306 -> 328 ;
329 [label=<gini = 0.0<br/>samples = 10<br/>value = [10, 0]<br/>class = <=50K>, fillcolor="#e58139"] ;
328 -> 329 ;
330 [label=<PC2 &le; -0.326<br/>gini = 0.486<br/>samples = 12<br/>value = [7, 5]<br/>class = <=50K>, fillcolor="#f8dbc6"] ;
328 -> 330 ;
331 [label=<relationship_Own-child &le; 0.5<br/>gini = 0.278<br/>samples = 6<br/>value = [5, 1]<br/>class = <=50K>, fillcolor="#ea9a61"] ;
330 -> 331 ;
332 [label=<gini = 0.0<br/>samples = 5<br/>value = [5, 0]<br/>class = <=50K>, fillcolor="#e58139"] ;
331 -> 332 ;
333 [label=<gini = 0.0<br/>samples = 1<br/>value = [0, 1]<br/>class = >50K>, fillcolor="#399de5"] ;
331 -> 333 ;
334 [label=<PC2 &le; -0.202<br/>gini = 0.444<br/>samples = 6<br/>value = [2, 4]<br/>class = >50K>, fillcolor="#9ccef2"] ;
330 -> 334 ;
335 [label=<gini = 0.0<br/>samples = 3<br/>value = [0, 3]<br/>class = >50K>, fillcolor="#399de5"] ;
334 -> 335 ;
336 [label=<occupation_Prof-specialty &le; 0.5<br/>gini = 0.444<br/>samples = 3<br/>value = [2, 1]<br/>class = <=50K>, fillcolor="#f2c09c"] ;
334 -> 336 ;
337 [label=<gini = 0.0<br/>samples = 2<br/>value = [2, 0]<br/>class = <=50K>, fillcolor="#e58139"] ;
336 -> 337 ;
338 [label=<gini = 0.0<br/>samples = 1<br/>value = [0, 1]<br/>class = >50K>, fillcolor="#399de5"] ;
336 -> 338 ;
339 [label=<PC3 &le; 0.021<br/>gini = 0.42<br/>samples = 10<br/>value = [7, 3]<br/>class = <=50K>, fillcolor="#f0b78e"] ;
305 -> 339 ;
340 [label=<gini = 0.0<br/>samples = 4<br/>value = [4, 0]<br/>class = <=50K>, fillcolor="#e58139"] ;
339 -> 340 ;
341 [label=<PC2 &le; 0.483<br/>gini = 0.5<br/>samples = 6<br/>value = [3, 3]<br/>class = <=50K>, fillcolor="#ffffff"] ;
339 -> 341 ;
342 [label=<gini = 0.0<br/>samples = 2<br/>value = [0, 2]<br/>class = >50K>, fillcolor="#399de5"] ;
341 -> 342 ;
343 [label=<PC2 &le; 1.345<br/>gini = 0.375<br/>samples = 4<br/>value = [3, 1]<br/>class = <=50K>, fillcolor="#eeab7b"] ;
341 -> 343 ;
344 [label=<gini = 0.0<br/>samples = 3<br/>value = [3, 0]<br/>class = <=50K>, fillcolor="#e58139"] ;
343 -> 344 ;
345 [label=<gini = 0.0<br/>samples = 1<br/>value = [0, 1]<br/>class = >50K>, fillcolor="#399de5"] ;
343 -> 345 ;
346 [label=<gini = 0.0<br/>samples = 2<br/>value = [0, 2]<br/>class = >50K>, fillcolor="#399de5"] ;
272 -> 346 ;
347 [label=<PC4 &le; -2.122<br/>gini = 0.334<br/>samples = 245<br/>value = [193, 52]<br/>class = <=50K>, fillcolor="#eca36e"] ;
271 -> 347 ;
348 [label=<PC2 &le; 0.04<br/>gini = 0.484<br/>samples = 17<br/>value = [7, 10]<br/>class = >50K>, fillcolor="#c4e2f7"] ;
347 -> 348 ;
349 [label=<PC3 &le; 0.444<br/>gini = 0.42<br/>samples = 10<br/>value = [7, 3]<br/>class = <=50K>, fillcolor="#f0b78e"] ;
348 -> 349 ;
350 [label=<occupation_Tech-support &le; 0.5<br/>gini = 0.219<br/>samples = 8<br/>value = [7, 1]<br/>class = <=50K>, fillcolor="#e99355"] ;
349 -> 350 ;
351 [label=<gini = 0.0<br/>samples = 7<br/>value = [7, 0]<br/>class = <=50K>, fillcolor="#e58139"] ;
350 -> 351 ;
352 [label=<gini = 0.0<br/>samples = 1<br/>value = [0, 1]<br/>class = >50K>, fillcolor="#399de5"] ;
350 -> 352 ;
353 [label=<gini = 0.0<br/>samples = 2<br/>value = [0, 2]<br/>class = >50K>, fillcolor="#399de5"] ;
349 -> 353 ;
354 [label=<gini = 0.0<br/>samples = 7<br/>value = [0, 7]<br/>class = >50K>, fillcolor="#399de5"] ;
348 -> 354 ;
355 [label=<PC1 &le; -0.013<br/>gini = 0.301<br/>samples = 228<br/>value = [186, 42]<br/>class = <=50K>, fillcolor="#eb9d66"] ;
347 -> 355 ;
356 [label=<gini = 0.0<br/>samples = 2<br/>value = [0, 2]<br/>class = >50K>, fillcolor="#399de5"] ;
355 -> 356 ;
357 [label=<PC1 &le; 0.666<br/>gini = 0.291<br/>samples = 226<br/>value = [186, 40]<br/>class = <=50K>, fillcolor="#eb9c64"] ;
355 -> 357 ;
358 [label=<PC3 &le; 0.422<br/>gini = 0.196<br/>samples = 127<br/>value = [113, 14]<br/>class = <=50K>, fillcolor="#e89152"] ;
357 -> 358 ;
359 [label=<marital-status_Widowed &le; 0.5<br/>gini = 0.092<br/>samples = 103<br/>value = [98, 5]<br/>class = <=50K>, fillcolor="#e68743"] ;
358 -> 359 ;
360 [label=<native-country_Philippines &le; 0.5<br/>gini = 0.075<br/>samples = 102<br/>value = [98, 4]<br/>class = <=50K>, fillcolor="#e68641"] ;
359 -> 360 ;
361 [label=<workclass_Federal-gov &le; 0.5<br/>gini = 0.058<br/>samples = 101<br/>value = [98, 3]<br/>class = <=50K>, fillcolor="#e6853f"] ;
360 -> 361 ;
362 [label=<occupation_Sales &le; 0.5<br/>gini = 0.041<br/>samples = 96<br/>value = [94, 2]<br/>class = <=50K>, fillcolor="#e6843d"] ;
361 -> 362 ;
363 [label=<gini = 0.0<br/>samples = 78<br/>value = [78, 0]<br/>class = <=50K>, fillcolor="#e58139"] ;
362 -> 363 ;
364 [label=<PC1 &le; 0.243<br/>gini = 0.198<br/>samples = 18<br/>value = [16, 2]<br/>class = <=50K>, fillcolor="#e89152"] ;
362 -> 364 ;
365 [label=<gini = 0.0<br/>samples = 11<br/>value = [11, 0]<br/>class = <=50K>, fillcolor="#e58139"] ;
364 -> 365 ;
366 [label=<PC4 &le; -1.169<br/>gini = 0.408<br/>samples = 7<br/>value = [5, 2]<br/>class = <=50K>, fillcolor="#efb388"] ;
364 -> 366 ;
367 [label=<gini = 0.0<br/>samples = 4<br/>value = [4, 0]<br/>class = <=50K>, fillcolor="#e58139"] ;
366 -> 367 ;
368 [label=<PC2 &le; 0.491<br/>gini = 0.444<br/>samples = 3<br/>value = [1, 2]<br/>class = >50K>, fillcolor="#9ccef2"] ;
366 -> 368 ;
369 [label=<gini = 0.0<br/>samples = 1<br/>value = [1, 0]<br/>class = <=50K>, fillcolor="#e58139"] ;
368 -> 369 ;
370 [label=<gini = 0.0<br/>samples = 2<br/>value = [0, 2]<br/>class = >50K>, fillcolor="#399de5"] ;
368 -> 370 ;
371 [label=<PC3 &le; 0.051<br/>gini = 0.32<br/>samples = 5<br/>value = [4, 1]<br/>class = <=50K>, fillcolor="#eca06a"] ;
361 -> 371 ;
372 [label=<gini = 0.0<br/>samples = 4<br/>value = [4, 0]<br/>class = <=50K>, fillcolor="#e58139"] ;
371 -> 372 ;
373 [label=<gini = 0.0<br/>samples = 1<br/>value = [0, 1]<br/>class = >50K>, fillcolor="#399de5"] ;
371 -> 373 ;
374 [label=<gini = 0.0<br/>samples = 1<br/>value = [0, 1]<br/>class = >50K>, fillcolor="#399de5"] ;
360 -> 374 ;
375 [label=<gini = 0.0<br/>samples = 1<br/>value = [0, 1]<br/>class = >50K>, fillcolor="#399de5"] ;
359 -> 375 ;
376 [label=<PC1 &le; 0.577<br/>gini = 0.469<br/>samples = 24<br/>value = [15, 9]<br/>class = <=50K>, fillcolor="#f5cdb0"] ;
358 -> 376 ;
377 [label=<PC4 &le; -1.554<br/>gini = 0.499<br/>samples = 19<br/>value = [10, 9]<br/>class = <=50K>, fillcolor="#fcf2eb"] ;
376 -> 377 ;
378 [label=<gini = 0.0<br/>samples = 4<br/>value = [4, 0]<br/>class = <=50K>, fillcolor="#e58139"] ;
377 -> 378 ;
379 [label=<PC4 &le; -1.274<br/>gini = 0.48<br/>samples = 15<br/>value = [6, 9]<br/>class = >50K>, fillcolor="#bddef6"] ;
377 -> 379 ;
380 [label=<gini = 0.0<br/>samples = 4<br/>value = [0, 4]<br/>class = >50K>, fillcolor="#399de5"] ;
379 -> 380 ;
381 [label=<occupation_Exec-managerial &le; 0.5<br/>gini = 0.496<br/>samples = 11<br/>value = [6, 5]<br/>class = <=50K>, fillcolor="#fbeade"] ;
379 -> 381 ;
382 [label=<occupation_Sales &le; 0.5<br/>gini = 0.444<br/>samples = 9<br/>value = [6, 3]<br/>class = <=50K>, fillcolor="#f2c09c"] ;
381 -> 382 ;
383 [label=<PC2 &le; 1.284<br/>gini = 0.245<br/>samples = 7<br/>value = [6, 1]<br/>class = <=50K>, fillcolor="#e9965a"] ;
382 -> 383 ;
384 [label=<gini = 0.0<br/>samples = 6<br/>value = [6, 0]<br/>class = <=50K>, fillcolor="#e58139"] ;
383 -> 384 ;
385 [label=<gini = 0.0<br/>samples = 1<br/>value = [0, 1]<br/>class = >50K>, fillcolor="#399de5"] ;
383 -> 385 ;
386 [label=<gini = 0.0<br/>samples = 2<br/>value = [0, 2]<br/>class = >50K>, fillcolor="#399de5"] ;
382 -> 386 ;
387 [label=<gini = 0.0<br/>samples = 2<br/>value = [0, 2]<br/>class = >50K>, fillcolor="#399de5"] ;
381 -> 387 ;
388 [label=<gini = 0.0<br/>samples = 5<br/>value = [5, 0]<br/>class = <=50K>, fillcolor="#e58139"] ;
376 -> 388 ;
389 [label=<PC4 &le; -1.157<br/>gini = 0.387<br/>samples = 99<br/>value = [73, 26]<br/>class = <=50K>, fillcolor="#eeae80"] ;
357 -> 389 ;
390 [label=<PC2 &le; -0.154<br/>gini = 0.352<br/>samples = 92<br/>value = [71, 21]<br/>class = <=50K>, fillcolor="#eda674"] ;
389 -> 390 ;
391 [label=<gini = 0.0<br/>samples = 23<br/>value = [23, 0]<br/>class = <=50K>, fillcolor="#e58139"] ;
390 -> 391 ;
392 [label=<PC2 &le; -0.055<br/>gini = 0.423<br/>samples = 69<br/>value = [48, 21]<br/>class = <=50K>, fillcolor="#f0b890"] ;
390 -> 392 ;
393 [label=<native-country_United-States &le; 0.5<br/>gini = 0.278<br/>samples = 6<br/>value = [1, 5]<br/>class = >50K>, fillcolor="#61b1ea"] ;
392 -> 393 ;
394 [label=<gini = 0.0<br/>samples = 1<br/>value = [1, 0]<br/>class = <=50K>, fillcolor="#e58139"] ;
393 -> 394 ;
395 [label=<gini = 0.0<br/>samples = 5<br/>value = [0, 5]<br/>class = >50K>, fillcolor="#399de5"] ;
393 -> 395 ;
396 [label=<PC2 &le; 1.238<br/>gini = 0.379<br/>samples = 63<br/>value = [47, 16]<br/>class = <=50K>, fillcolor="#eeac7c"] ;
392 -> 396 ;
397 [label=<PC3 &le; 0.679<br/>gini = 0.354<br/>samples = 61<br/>value = [47, 14]<br/>class = <=50K>, fillcolor="#eda774"] ;
396 -> 397 ;
398 [label=<PC1 &le; 0.914<br/>gini = 0.413<br/>samples = 48<br/>value = [34, 14]<br/>class = <=50K>, fillcolor="#f0b58b"] ;
397 -> 398 ;
399 [label=<occupation_Sales &le; 0.5<br/>gini = 0.293<br/>samples = 28<br/>value = [23, 5]<br/>class = <=50K>, fillcolor="#eb9c64"] ;
398 -> 399 ;
400 [label=<PC1 &le; 0.772<br/>gini = 0.204<br/>samples = 26<br/>value = [23, 3]<br/>class = <=50K>, fillcolor="#e89153"] ;
399 -> 400 ;
401 [label=<PC1 &le; 0.771<br/>gini = 0.355<br/>samples = 13<br/>value = [10, 3]<br/>class = <=50K>, fillcolor="#eda774"] ;
400 -> 401 ;
402 [label=<occupation_Prof-specialty &le; 0.5<br/>gini = 0.278<br/>samples = 12<br/>value = [10, 2]<br/>class = <=50K>, fillcolor="#ea9a61"] ;
401 -> 402 ;
403 [label=<gini = 0.0<br/>samples = 6<br/>value = [6, 0]<br/>class = <=50K>, fillcolor="#e58139"] ;
402 -> 403 ;
404 [label=<native-country_United-States &le; 0.5<br/>gini = 0.444<br/>samples = 6<br/>value = [4, 2]<br/>class = <=50K>, fillcolor="#f2c09c"] ;
402 -> 404 ;
405 [label=<gini = 0.0<br/>samples = 1<br/>value = [0, 1]<br/>class = >50K>, fillcolor="#399de5"] ;
404 -> 405 ;
406 [label=<PC3 &le; 0.299<br/>gini = 0.32<br/>samples = 5<br/>value = [4, 1]<br/>class = <=50K>, fillcolor="#eca06a"] ;
404 -> 406 ;
407 [label=<gini = 0.0<br/>samples = 4<br/>value = [4, 0]<br/>class = <=50K>, fillcolor="#e58139"] ;
406 -> 407 ;
408 [label=<gini = 0.0<br/>samples = 1<br/>value = [0, 1]<br/>class = >50K>, fillcolor="#399de5"] ;
406 -> 408 ;
409 [label=<gini = 0.0<br/>samples = 1<br/>value = [0, 1]<br/>class = >50K>, fillcolor="#399de5"] ;
401 -> 409 ;
410 [label=<gini = 0.0<br/>samples = 13<br/>value = [13, 0]<br/>class = <=50K>, fillcolor="#e58139"] ;
400 -> 410 ;
411 [label=<gini = 0.0<br/>samples = 2<br/>value = [0, 2]<br/>class = >50K>, fillcolor="#399de5"] ;
399 -> 411 ;
412 [label=<occupation_Exec-managerial &le; 0.5<br/>gini = 0.495<br/>samples = 20<br/>value = [11, 9]<br/>class = <=50K>, fillcolor="#fae8db"] ;
398 -> 412 ;
413 [label=<workclass_Self-emp-not-inc &le; 0.5<br/>gini = 0.43<br/>samples = 16<br/>value = [11, 5]<br/>class = <=50K>, fillcolor="#f1ba93"] ;
412 -> 413 ;
414 [label=<native-country_India &le; 0.5<br/>gini = 0.337<br/>samples = 14<br/>value = [11, 3]<br/>class = <=50K>, fillcolor="#eca36f"] ;
413 -> 414 ;
415 [label=<workclass_State-gov &le; 0.5<br/>gini = 0.26<br/>samples = 13<br/>value = [11, 2]<br/>class = <=50K>, fillcolor="#ea985d"] ;
414 -> 415 ;
416 [label=<education_Prof-school &le; 0.5<br/>gini = 0.165<br/>samples = 11<br/>value = [10, 1]<br/>class = <=50K>, fillcolor="#e88e4d"] ;
415 -> 416 ;
417 [label=<gini = 0.0<br/>samples = 8<br/>value = [8, 0]<br/>class = <=50K>, fillcolor="#e58139"] ;
416 -> 417 ;
418 [label=<PC4 &le; -1.823<br/>gini = 0.444<br/>samples = 3<br/>value = [2, 1]<br/>class = <=50K>, fillcolor="#f2c09c"] ;
416 -> 418 ;
419 [label=<gini = 0.0<br/>samples = 1<br/>value = [1, 0]<br/>class = <=50K>, fillcolor="#e58139"] ;
418 -> 419 ;
420 [label=<PC3 &le; -0.842<br/>gini = 0.5<br/>samples = 2<br/>value = [1, 1]<br/>class = <=50K>, fillcolor="#ffffff"] ;
418 -> 420 ;
421 [label=<gini = 0.0<br/>samples = 1<br/>value = [1, 0]<br/>class = <=50K>, fillcolor="#e58139"] ;
420 -> 421 ;
422 [label=<gini = 0.0<br/>samples = 1<br/>value = [0, 1]<br/>class = >50K>, fillcolor="#399de5"] ;
420 -> 422 ;
423 [label=<PC3 &le; -0.396<br/>gini = 0.5<br/>samples = 2<br/>value = [1, 1]<br/>class = <=50K>, fillcolor="#ffffff"] ;
415 -> 423 ;
424 [label=<gini = 0.0<br/>samples = 1<br/>value = [1, 0]<br/>class = <=50K>, fillcolor="#e58139"] ;
423 -> 424 ;
425 [label=<gini = 0.0<br/>samples = 1<br/>value = [0, 1]<br/>class = >50K>, fillcolor="#399de5"] ;
423 -> 425 ;
426 [label=<gini = 0.0<br/>samples = 1<br/>value = [0, 1]<br/>class = >50K>, fillcolor="#399de5"] ;
414 -> 426 ;
427 [label=<gini = 0.0<br/>samples = 2<br/>value = [0, 2]<br/>class = >50K>, fillcolor="#399de5"] ;
413 -> 427 ;
428 [label=<gini = 0.0<br/>samples = 4<br/>value = [0, 4]<br/>class = >50K>, fillcolor="#399de5"] ;
412 -> 428 ;
429 [label=<gini = 0.0<br/>samples = 13<br/>value = [13, 0]<br/>class = <=50K>, fillcolor="#e58139"] ;
397 -> 429 ;
430 [label=<gini = 0.0<br/>samples = 2<br/>value = [0, 2]<br/>class = >50K>, fillcolor="#399de5"] ;
396 -> 430 ;
431 [label=<relationship_Not-in-family &le; 0.5<br/>gini = 0.408<br/>samples = 7<br/>value = [2, 5]<br/>class = >50K>, fillcolor="#88c4ef"] ;
389 -> 431 ;
432 [label=<gini = 0.0<br/>samples = 2<br/>value = [2, 0]<br/>class = <=50K>, fillcolor="#e58139"] ;
431 -> 432 ;
433 [label=<gini = 0.0<br/>samples = 5<br/>value = [0, 5]<br/>class = >50K>, fillcolor="#399de5"] ;
431 -> 433 ;
434 [label=<PC2 &le; 3.353<br/>gini = 0.108<br/>samples = 2140<br/>value = [2018, 122]<br/>class = <=50K>, fillcolor="#e78945"] ;
270 -> 434 ;
435 [label=<PC3 &le; 2.761<br/>gini = 0.105<br/>samples = 2137<br/>value = [2018, 119]<br/>class = <=50K>, fillcolor="#e78845"] ;
434 -> 435 ;
436 [label=<marital-status_Married-AF-spouse &le; 0.5<br/>gini = 0.104<br/>samples = 2136<br/>value = [2018, 118]<br/>class = <=50K>, fillcolor="#e78845"] ;
435 -> 436 ;
437 [label=<native-country_India &le; 0.5<br/>gini = 0.104<br/>samples = 2135<br/>value = [2018, 117]<br/>class = <=50K>, fillcolor="#e78844"] ;
436 -> 437 ;
438 [label=<PC2 &le; 1.119<br/>gini = 0.103<br/>samples = 2134<br/>value = [2018, 116]<br/>class = <=50K>, fillcolor="#e68844"] ;
437 -> 438 ;
439 [label=<native-country_Ireland &le; 0.5<br/>gini = 0.09<br/>samples = 1844<br/>value = [1757, 87]<br/>class = <=50K>, fillcolor="#e68743"] ;
438 -> 439 ;
440 [label=<PC2 &le; -3.087<br/>gini = 0.089<br/>samples = 1842<br/>value = [1756, 86]<br/>class = <=50K>, fillcolor="#e68743"] ;
439 -> 440 ;
441 [label=<PC3 &le; 1.552<br/>gini = 0.5<br/>samples = 2<br/>value = [1, 1]<br/>class = <=50K>, fillcolor="#ffffff"] ;
440 -> 441 ;
442 [label=<gini = 0.0<br/>samples = 1<br/>value = [1, 0]<br/>class = <=50K>, fillcolor="#e58139"] ;
441 -> 442 ;
443 [label=<gini = 0.0<br/>samples = 1<br/>value = [0, 1]<br/>class = >50K>, fillcolor="#399de5"] ;
441 -> 443 ;
444 [label=<PC3 &le; -1.104<br/>gini = 0.088<br/>samples = 1840<br/>value = [1755, 85]<br/>class = <=50K>, fillcolor="#e68743"] ;
440 -> 444 ;
445 [label=<native-country_Portugal &le; 0.5<br/>gini = 0.042<br/>samples = 419<br/>value = [410, 9]<br/>class = <=50K>, fillcolor="#e6843d"] ;
444 -> 445 ;
446 [label=<PC2 &le; -0.284<br/>gini = 0.038<br/>samples = 417<br/>value = [409, 8]<br/>class = <=50K>, fillcolor="#e6833d"] ;
445 -> 446 ;
447 [label=<PC2 &le; -0.289<br/>gini = 0.095<br/>samples = 120<br/>value = [114, 6]<br/>class = <=50K>, fillcolor="#e68843"] ;
446 -> 447 ;
448 [label=<occupation_Craft-repair &le; 0.5<br/>gini = 0.081<br/>samples = 119<br/>value = [114, 5]<br/>class = <=50K>, fillcolor="#e68742"] ;
447 -> 448 ;
449 [label=<occupation_Transport-moving &le; 0.5<br/>gini = 0.054<br/>samples = 108<br/>value = [105, 3]<br/>class = <=50K>, fillcolor="#e6853f"] ;
448 -> 449 ;
450 [label=<PC2 &le; -0.312<br/>gini = 0.038<br/>samples = 104<br/>value = [102, 2]<br/>class = <=50K>, fillcolor="#e6833d"] ;
449 -> 450 ;
451 [label=<education_Assoc-voc &le; 0.5<br/>gini = 0.021<br/>samples = 95<br/>value = [94, 1]<br/>class = <=50K>, fillcolor="#e5823b"] ;
450 -> 451 ;
452 [label=<gini = 0.0<br/>samples = 82<br/>value = [82, 0]<br/>class = <=50K>, fillcolor="#e58139"] ;
451 -> 452 ;
453 [label=<PC1 &le; 0.705<br/>gini = 0.142<br/>samples = 13<br/>value = [12, 1]<br/>class = <=50K>, fillcolor="#e78c49"] ;
451 -> 453 ;
454 [label=<gini = 0.0<br/>samples = 12<br/>value = [12, 0]<br/>class = <=50K>, fillcolor="#e58139"] ;
453 -> 454 ;
455 [label=<gini = 0.0<br/>samples = 1<br/>value = [0, 1]<br/>class = >50K>, fillcolor="#399de5"] ;
453 -> 455 ;
456 [label=<PC2 &le; -0.312<br/>gini = 0.198<br/>samples = 9<br/>value = [8, 1]<br/>class = <=50K>, fillcolor="#e89152"] ;
450 -> 456 ;
457 [label=<gini = 0.0<br/>samples = 1<br/>value = [0, 1]<br/>class = >50K>, fillcolor="#399de5"] ;
456 -> 457 ;
458 [label=<gini = 0.0<br/>samples = 8<br/>value = [8, 0]<br/>class = <=50K>, fillcolor="#e58139"] ;
456 -> 458 ;
459 [label=<PC1 &le; 0.301<br/>gini = 0.375<br/>samples = 4<br/>value = [3, 1]<br/>class = <=50K>, fillcolor="#eeab7b"] ;
449 -> 459 ;
460 [label=<gini = 0.0<br/>samples = 1<br/>value = [0, 1]<br/>class = >50K>, fillcolor="#399de5"] ;
459 -> 460 ;
461 [label=<gini = 0.0<br/>samples = 3<br/>value = [3, 0]<br/>class = <=50K>, fillcolor="#e58139"] ;
459 -> 461 ;
462 [label=<education_Bachelors &le; 0.5<br/>gini = 0.298<br/>samples = 11<br/>value = [9, 2]<br/>class = <=50K>, fillcolor="#eb9d65"] ;
448 -> 462 ;
463 [label=<race_White &le; 0.5<br/>gini = 0.18<br/>samples = 10<br/>value = [9, 1]<br/>class = <=50K>, fillcolor="#e88f4f"] ;
462 -> 463 ;
464 [label=<PC2 &le; -0.757<br/>gini = 0.5<br/>samples = 2<br/>value = [1, 1]<br/>class = <=50K>, fillcolor="#ffffff"] ;
463 -> 464 ;
465 [label=<gini = 0.0<br/>samples = 1<br/>value = [1, 0]<br/>class = <=50K>, fillcolor="#e58139"] ;
464 -> 465 ;
466 [label=<gini = 0.0<br/>samples = 1<br/>value = [0, 1]<br/>class = >50K>, fillcolor="#399de5"] ;
464 -> 466 ;
467 [label=<gini = 0.0<br/>samples = 8<br/>value = [8, 0]<br/>class = <=50K>, fillcolor="#e58139"] ;
463 -> 467 ;
468 [label=<gini = 0.0<br/>samples = 1<br/>value = [0, 1]<br/>class = >50K>, fillcolor="#399de5"] ;
462 -> 468 ;
469 [label=<gini = 0.0<br/>samples = 1<br/>value = [0, 1]<br/>class = >50K>, fillcolor="#399de5"] ;
447 -> 469 ;
470 [label=<workclass_Self-emp-not-inc &le; 0.5<br/>gini = 0.013<br/>samples = 297<br/>value = [295, 2]<br/>class = <=50K>, fillcolor="#e5823a"] ;
446 -> 470 ;
471 [label=<PC4 &le; -1.121<br/>gini = 0.007<br/>samples = 287<br/>value = [286, 1]<br/>class = <=50K>, fillcolor="#e5813a"] ;
470 -> 471 ;
472 [label=<relationship_Unmarried &le; 0.5<br/>gini = 0.133<br/>samples = 14<br/>value = [13, 1]<br/>class = <=50K>, fillcolor="#e78b48"] ;
471 -> 472 ;
473 [label=<gini = 0.0<br/>samples = 13<br/>value = [13, 0]<br/>class = <=50K>, fillcolor="#e58139"] ;
472 -> 473 ;
474 [label=<gini = 0.0<br/>samples = 1<br/>value = [0, 1]<br/>class = >50K>, fillcolor="#399de5"] ;
472 -> 474 ;
475 [label=<gini = 0.0<br/>samples = 273<br/>value = [273, 0]<br/>class = <=50K>, fillcolor="#e58139"] ;
471 -> 475 ;
476 [label=<race_Asian-Pac-Islander &le; 0.5<br/>gini = 0.18<br/>samples = 10<br/>value = [9, 1]<br/>class = <=50K>, fillcolor="#e88f4f"] ;
470 -> 476 ;
477 [label=<gini = 0.0<br/>samples = 9<br/>value = [9, 0]<br/>class = <=50K>, fillcolor="#e58139"] ;
476 -> 477 ;
478 [label=<gini = 0.0<br/>samples = 1<br/>value = [0, 1]<br/>class = >50K>, fillcolor="#399de5"] ;
476 -> 478 ;
479 [label=<marital-status_Separated &le; 0.5<br/>gini = 0.5<br/>samples = 2<br/>value = [1, 1]<br/>class = <=50K>, fillcolor="#ffffff"] ;
445 -> 479 ;
480 [label=<gini = 0.0<br/>samples = 1<br/>value = [1, 0]<br/>class = <=50K>, fillcolor="#e58139"] ;
479 -> 480 ;
481 [label=<gini = 0.0<br/>samples = 1<br/>value = [0, 1]<br/>class = >50K>, fillcolor="#399de5"] ;
479 -> 481 ;
482 [label=<PC3 &le; -1.103<br/>gini = 0.101<br/>samples = 1421<br/>value = [1345, 76]<br/>class = <=50K>, fillcolor="#e68844"] ;
444 -> 482 ;
483 [label=<gini = 0.0<br/>samples = 1<br/>value = [0, 1]<br/>class = >50K>, fillcolor="#399de5"] ;
482 -> 483 ;
484 [label=<education_HS-grad &le; 0.5<br/>gini = 0.1<br/>samples = 1420<br/>value = [1345, 75]<br/>class = <=50K>, fillcolor="#e68844"] ;
482 -> 484 ;
485 [label=<occupation_Adm-clerical &le; 0.5<br/>gini = 0.126<br/>samples = 902<br/>value = [841, 61]<br/>class = <=50K>, fillcolor="#e78a47"] ;
484 -> 485 ;
486 [label=<occupation_Other-service &le; 0.5<br/>gini = 0.149<br/>samples = 693<br/>value = [637, 56]<br/>class = <=50K>, fillcolor="#e78c4a"] ;
485 -> 486 ;
487 [label=<marital-status_Widowed &le; 0.5<br/>gini = 0.167<br/>samples = 611<br/>value = [555, 56]<br/>class = <=50K>, fillcolor="#e88e4d"] ;
486 -> 487 ;
488 [label=<PC1 &le; 0.803<br/>gini = 0.151<br/>samples = 558<br/>value = [512, 46]<br/>class = <=50K>, fillcolor="#e78c4b"] ;
487 -> 488 ;
489 [label=<native-country_Japan &le; 0.5<br/>gini = 0.123<br/>samples = 411<br/>value = [384, 27]<br/>class = <=50K>, fillcolor="#e78a47"] ;
488 -> 489 ;
490 [label=<occupation_Prof-specialty &le; 0.5<br/>gini = 0.119<br/>samples = 410<br/>value = [384, 26]<br/>class = <=50K>, fillcolor="#e78a46"] ;
489 -> 490 ;
491 [label=<education_Some-college &le; 0.5<br/>gini = 0.093<br/>samples = 329<br/>value = [313, 16]<br/>class = <=50K>, fillcolor="#e68743"] ;
490 -> 491 ;
492 [label=<PC1 &le; 0.028<br/>gini = 0.036<br/>samples = 163<br/>value = [160, 3]<br/>class = <=50K>, fillcolor="#e5833d"] ;
491 -> 492 ;
493 [label=<PC1 &le; 0.023<br/>gini = 0.18<br/>samples = 10<br/>value = [9, 1]<br/>class = <=50K>, fillcolor="#e88f4f"] ;
492 -> 493 ;
494 [label=<gini = 0.0<br/>samples = 9<br/>value = [9, 0]<br/>class = <=50K>, fillcolor="#e58139"] ;
493 -> 494 ;
495 [label=<gini = 0.0<br/>samples = 1<br/>value = [0, 1]<br/>class = >50K>, fillcolor="#399de5"] ;
493 -> 495 ;
496 [label=<PC2 &le; -0.931<br/>gini = 0.026<br/>samples = 153<br/>value = [151, 2]<br/>class = <=50K>, fillcolor="#e5833c"] ;
492 -> 496 ;
497 [label=<occupation_Exec-managerial &le; 0.5<br/>gini = 0.165<br/>samples = 11<br/>value = [10, 1]<br/>class = <=50K>, fillcolor="#e88e4d"] ;
496 -> 497 ;
498 [label=<gini = 0.0<br/>samples = 10<br/>value = [10, 0]<br/>class = <=50K>, fillcolor="#e58139"] ;
497 -> 498 ;
499 [label=<gini = 0.0<br/>samples = 1<br/>value = [0, 1]<br/>class = >50K>, fillcolor="#399de5"] ;
497 -> 499 ;
500 [label=<PC4 &le; -1.131<br/>gini = 0.014<br/>samples = 142<br/>value = [141, 1]<br/>class = <=50K>, fillcolor="#e5823a"] ;
496 -> 500 ;
501 [label=<PC4 &le; -1.131<br/>gini = 0.074<br/>samples = 26<br/>value = [25, 1]<br/>class = <=50K>, fillcolor="#e68641"] ;
500 -> 501 ;
502 [label=<gini = 0.0<br/>samples = 25<br/>value = [25, 0]<br/>class = <=50K>, fillcolor="#e58139"] ;
501 -> 502 ;
503 [label=<gini = 0.0<br/>samples = 1<br/>value = [0, 1]<br/>class = >50K>, fillcolor="#399de5"] ;
501 -> 503 ;
504 [label=<gini = 0.0<br/>samples = 116<br/>value = [116, 0]<br/>class = <=50K>, fillcolor="#e58139"] ;
500 -> 504 ;
505 [label=<PC3 &le; -0.896<br/>gini = 0.144<br/>samples = 166<br/>value = [153, 13]<br/>class = <=50K>, fillcolor="#e78c4a"] ;
491 -> 505 ;
506 [label=<PC1 &le; 0.159<br/>gini = 0.486<br/>samples = 12<br/>value = [7, 5]<br/>class = <=50K>, fillcolor="#f8dbc6"] ;
505 -> 506 ;
507 [label=<gini = 0.0<br/>samples = 3<br/>value = [0, 3]<br/>class = >50K>, fillcolor="#399de5"] ;
506 -> 507 ;
508 [label=<PC4 &le; -0.089<br/>gini = 0.346<br/>samples = 9<br/>value = [7, 2]<br/>class = <=50K>, fillcolor="#eca572"] ;
506 -> 508 ;
509 [label=<PC2 &le; -1.317<br/>gini = 0.444<br/>samples = 3<br/>value = [1, 2]<br/>class = >50K>, fillcolor="#9ccef2"] ;
508 -> 509 ;
510 [label=<gini = 0.0<br/>samples = 2<br/>value = [0, 2]<br/>class = >50K>, fillcolor="#399de5"] ;
509 -> 510 ;
511 [label=<gini = 0.0<br/>samples = 1<br/>value = [1, 0]<br/>class = <=50K>, fillcolor="#e58139"] ;
509 -> 511 ;
512 [label=<gini = 0.0<br/>samples = 6<br/>value = [6, 0]<br/>class = <=50K>, fillcolor="#e58139"] ;
508 -> 512 ;
513 [label=<PC1 &le; 0.742<br/>gini = 0.098<br/>samples = 154<br/>value = [146, 8]<br/>class = <=50K>, fillcolor="#e68844"] ;
505 -> 513 ;
514 [label=<PC4 &le; 0.806<br/>gini = 0.088<br/>samples = 152<br/>value = [145, 7]<br/>class = <=50K>, fillcolor="#e68743"] ;
513 -> 514 ;
515 [label=<relationship_Not-in-family &le; 0.5<br/>gini = 0.077<br/>samples = 149<br/>value = [143, 6]<br/>class = <=50K>, fillcolor="#e68641"] ;
514 -> 515 ;
516 [label=<gini = 0.0<br/>samples = 59<br/>value = [59, 0]<br/>class = <=50K>, fillcolor="#e58139"] ;
515 -> 516 ;
517 [label=<workclass_Private &le; 0.5<br/>gini = 0.124<br/>samples = 90<br/>value = [84, 6]<br/>class = <=50K>, fillcolor="#e78a47"] ;
515 -> 517 ;
518 [label=<gini = 0.0<br/>samples = 26<br/>value = [26, 0]<br/>class = <=50K>, fillcolor="#e58139"] ;
517 -> 518 ;
519 [label=<PC4 &le; -0.143<br/>gini = 0.17<br/>samples = 64<br/>value = [58, 6]<br/>class = <=50K>, fillcolor="#e88e4d"] ;
517 -> 519 ;
520 [label=<PC3 &le; -0.133<br/>gini = 0.271<br/>samples = 31<br/>value = [26, 5]<br/>class = <=50K>, fillcolor="#ea995f"] ;
519 -> 520 ;
521 [label=<PC3 &le; -0.243<br/>gini = 0.444<br/>samples = 3<br/>value = [1, 2]<br/>class = >50K>, fillcolor="#9ccef2"] ;
520 -> 521 ;
522 [label=<gini = 0.0<br/>samples = 1<br/>value = [1, 0]<br/>class = <=50K>, fillcolor="#e58139"] ;
521 -> 522 ;
523 [label=<gini = 0.0<br/>samples = 2<br/>value = [0, 2]<br/>class = >50K>, fillcolor="#399de5"] ;
521 -> 523 ;
524 [label=<PC2 &le; -1.381<br/>gini = 0.191<br/>samples = 28<br/>value = [25, 3]<br/>class = <=50K>, fillcolor="#e89051"] ;
520 -> 524 ;
525 [label=<gini = 0.0<br/>samples = 1<br/>value = [0, 1]<br/>class = >50K>, fillcolor="#399de5"] ;
524 -> 525 ;
526 [label=<PC3 &le; 0.986<br/>gini = 0.137<br/>samples = 27<br/>value = [25, 2]<br/>class = <=50K>, fillcolor="#e78b49"] ;
524 -> 526 ;
527 [label=<gini = 0.0<br/>samples = 18<br/>value = [18, 0]<br/>class = <=50K>, fillcolor="#e58139"] ;
526 -> 527 ;
528 [label=<PC3 &le; 1.19<br/>gini = 0.346<br/>samples = 9<br/>value = [7, 2]<br/>class = <=50K>, fillcolor="#eca572"] ;
526 -> 528 ;
529 [label=<PC2 &le; -0.877<br/>gini = 0.444<br/>samples = 3<br/>value = [1, 2]<br/>class = >50K>, fillcolor="#9ccef2"] ;
528 -> 529 ;
530 [label=<gini = 0.0<br/>samples = 1<br/>value = [1, 0]<br/>class = <=50K>, fillcolor="#e58139"] ;
529 -> 530 ;
531 [label=<gini = 0.0<br/>samples = 2<br/>value = [0, 2]<br/>class = >50K>, fillcolor="#399de5"] ;
529 -> 531 ;
532 [label=<gini = 0.0<br/>samples = 6<br/>value = [6, 0]<br/>class = <=50K>, fillcolor="#e58139"] ;
528 -> 532 ;
533 [label=<PC1 &le; 0.102<br/>gini = 0.059<br/>samples = 33<br/>value = [32, 1]<br/>class = <=50K>, fillcolor="#e6853f"] ;
519 -> 533 ;
534 [label=<PC4 &le; 0.708<br/>gini = 0.444<br/>samples = 3<br/>value = [2, 1]<br/>class = <=50K>, fillcolor="#f2c09c"] ;
533 -> 534 ;
535 [label=<gini = 0.0<br/>samples = 2<br/>value = [2, 0]<br/>class = <=50K>, fillcolor="#e58139"] ;
534 -> 535 ;
536 [label=<gini = 0.0<br/>samples = 1<br/>value = [0, 1]<br/>class = >50K>, fillcolor="#399de5"] ;
534 -> 536 ;
537 [label=<gini = 0.0<br/>samples = 30<br/>value = [30, 0]<br/>class = <=50K>, fillcolor="#e58139"] ;
533 -> 537 ;
538 [label=<occupation_Craft-repair &le; 0.5<br/>gini = 0.444<br/>samples = 3<br/>value = [2, 1]<br/>class = <=50K>, fillcolor="#f2c09c"] ;
514 -> 538 ;
539 [label=<gini = 0.0<br/>samples = 2<br/>value = [2, 0]<br/>class = <=50K>, fillcolor="#e58139"] ;
538 -> 539 ;
540 [label=<gini = 0.0<br/>samples = 1<br/>value = [0, 1]<br/>class = >50K>, fillcolor="#399de5"] ;
538 -> 540 ;
541 [label=<PC2 &le; -1.541<br/>gini = 0.5<br/>samples = 2<br/>value = [1, 1]<br/>class = <=50K>, fillcolor="#ffffff"] ;
513 -> 541 ;
542 [label=<gini = 0.0<br/>samples = 1<br/>value = [1, 0]<br/>class = <=50K>, fillcolor="#e58139"] ;
541 -> 542 ;
543 [label=<gini = 0.0<br/>samples = 1<br/>value = [0, 1]<br/>class = >50K>, fillcolor="#399de5"] ;
541 -> 543 ;
544 [label=<workclass_Federal-gov &le; 0.5<br/>gini = 0.216<br/>samples = 81<br/>value = [71, 10]<br/>class = <=50K>, fillcolor="#e99355"] ;
490 -> 544 ;
545 [label=<sex_Male &le; 0.5<br/>gini = 0.171<br/>samples = 74<br/>value = [67, 7]<br/>class = <=50K>, fillcolor="#e88e4e"] ;
544 -> 545 ;
546 [label=<PC3 &le; 0.176<br/>gini = 0.074<br/>samples = 52<br/>value = [50, 2]<br/>class = <=50K>, fillcolor="#e68641"] ;
545 -> 546 ;
547 [label=<gini = 0.0<br/>samples = 35<br/>value = [35, 0]<br/>class = <=50K>, fillcolor="#e58139"] ;
546 -> 547 ;
548 [label=<PC3 &le; 0.47<br/>gini = 0.208<br/>samples = 17<br/>value = [15, 2]<br/>class = <=50K>, fillcolor="#e89253"] ;
546 -> 548 ;
549 [label=<PC2 &le; 0.317<br/>gini = 0.444<br/>samples = 3<br/>value = [1, 2]<br/>class = >50K>, fillcolor="#9ccef2"] ;
548 -> 549 ;
550 [label=<gini = 0.0<br/>samples = 2<br/>value = [0, 2]<br/>class = >50K>, fillcolor="#399de5"] ;
549 -> 550 ;
551 [label=<gini = 0.0<br/>samples = 1<br/>value = [1, 0]<br/>class = <=50K>, fillcolor="#e58139"] ;
549 -> 551 ;
552 [label=<gini = 0.0<br/>samples = 14<br/>value = [14, 0]<br/>class = <=50K>, fillcolor="#e58139"] ;
548 -> 552 ;
553 [label=<education_Assoc-acdm &le; 0.5<br/>gini = 0.351<br/>samples = 22<br/>value = [17, 5]<br/>class = <=50K>, fillcolor="#eda673"] ;
545 -> 553 ;
554 [label=<PC3 &le; -1.015<br/>gini = 0.266<br/>samples = 19<br/>value = [16, 3]<br/>class = <=50K>, fillcolor="#ea995e"] ;
553 -> 554 ;
555 [label=<gini = 0.0<br/>samples = 1<br/>value = [0, 1]<br/>class = >50K>, fillcolor="#399de5"] ;
554 -> 555 ;
556 [label=<PC3 &le; 1.075<br/>gini = 0.198<br/>samples = 18<br/>value = [16, 2]<br/>class = <=50K>, fillcolor="#e89152"] ;
554 -> 556 ;
557 [label=<PC2 &le; -1.404<br/>gini = 0.111<br/>samples = 17<br/>value = [16, 1]<br/>class = <=50K>, fillcolor="#e78945"] ;
556 -> 557 ;
558 [label=<PC1 &le; 0.491<br/>gini = 0.5<br/>samples = 2<br/>value = [1, 1]<br/>class = <=50K>, fillcolor="#ffffff"] ;
557 -> 558 ;
559 [label=<gini = 0.0<br/>samples = 1<br/>value = [0, 1]<br/>class = >50K>, fillcolor="#399de5"] ;
558 -> 559 ;
560 [label=<gini = 0.0<br/>samples = 1<br/>value = [1, 0]<br/>class = <=50K>, fillcolor="#e58139"] ;
558 -> 560 ;
561 [label=<gini = 0.0<br/>samples = 15<br/>value = [15, 0]<br/>class = <=50K>, fillcolor="#e58139"] ;
557 -> 561 ;
562 [label=<gini = 0.0<br/>samples = 1<br/>value = [0, 1]<br/>class = >50K>, fillcolor="#399de5"] ;
556 -> 562 ;
563 [label=<PC4 &le; -0.847<br/>gini = 0.444<br/>samples = 3<br/>value = [1, 2]<br/>class = >50K>, fillcolor="#9ccef2"] ;
553 -> 563 ;
564 [label=<gini = 0.0<br/>samples = 1<br/>value = [1, 0]<br/>class = <=50K>, fillcolor="#e58139"] ;
563 -> 564 ;
565 [label=<gini = 0.0<br/>samples = 2<br/>value = [0, 2]<br/>class = >50K>, fillcolor="#399de5"] ;
563 -> 565 ;
566 [label=<education_Assoc-acdm &le; 0.5<br/>gini = 0.49<br/>samples = 7<br/>value = [4, 3]<br/>class = <=50K>, fillcolor="#f8e0ce"] ;
544 -> 566 ;
567 [label=<PC4 &le; -0.173<br/>gini = 0.32<br/>samples = 5<br/>value = [4, 1]<br/>class = <=50K>, fillcolor="#eca06a"] ;
566 -> 567 ;
568 [label=<gini = 0.0<br/>samples = 4<br/>value = [4, 0]<br/>class = <=50K>, fillcolor="#e58139"] ;
567 -> 568 ;
569 [label=<gini = 0.0<br/>samples = 1<br/>value = [0, 1]<br/>class = >50K>, fillcolor="#399de5"] ;
567 -> 569 ;
570 [label=<gini = 0.0<br/>samples = 2<br/>value = [0, 2]<br/>class = >50K>, fillcolor="#399de5"] ;
566 -> 570 ;
571 [label=<gini = 0.0<br/>samples = 1<br/>value = [0, 1]<br/>class = >50K>, fillcolor="#399de5"] ;
489 -> 571 ;
572 [label=<PC3 &le; 0.356<br/>gini = 0.225<br/>samples = 147<br/>value = [128, 19]<br/>class = <=50K>, fillcolor="#e99456"] ;
488 -> 572 ;
573 [label=<education_12th &le; 0.5<br/>gini = 0.155<br/>samples = 118<br/>value = [108, 10]<br/>class = <=50K>, fillcolor="#e78d4b"] ;
572 -> 573 ;
574 [label=<PC4 &le; -1.135<br/>gini = 0.142<br/>samples = 117<br/>value = [108, 9]<br/>class = <=50K>, fillcolor="#e78c49"] ;
573 -> 574 ;
575 [label=<PC4 &le; -1.14<br/>gini = 0.397<br/>samples = 11<br/>value = [8, 3]<br/>class = <=50K>, fillcolor="#efb083"] ;
574 -> 575 ;
576 [label=<gini = 0.0<br/>samples = 5<br/>value = [5, 0]<br/>class = <=50K>, fillcolor="#e58139"] ;
575 -> 576 ;
577 [label=<workclass_Private &le; 0.5<br/>gini = 0.5<br/>samples = 6<br/>value = [3, 3]<br/>class = <=50K>, fillcolor="#ffffff"] ;
575 -> 577 ;
578 [label=<gini = 0.0<br/>samples = 2<br/>value = [0, 2]<br/>class = >50K>, fillcolor="#399de5"] ;
577 -> 578 ;
579 [label=<PC1 &le; 0.853<br/>gini = 0.375<br/>samples = 4<br/>value = [3, 1]<br/>class = <=50K>, fillcolor="#eeab7b"] ;
577 -> 579 ;
580 [label=<gini = 0.0<br/>samples = 1<br/>value = [0, 1]<br/>class = >50K>, fillcolor="#399de5"] ;
579 -> 580 ;
581 [label=<gini = 0.0<br/>samples = 3<br/>value = [3, 0]<br/>class = <=50K>, fillcolor="#e58139"] ;
579 -> 581 ;
582 [label=<PC2 &le; 0.919<br/>gini = 0.107<br/>samples = 106<br/>value = [100, 6]<br/>class = <=50K>, fillcolor="#e78945"] ;
574 -> 582 ;
583 [label=<PC1 &le; 0.941<br/>gini = 0.064<br/>samples = 90<br/>value = [87, 3]<br/>class = <=50K>, fillcolor="#e68540"] ;
582 -> 583 ;
584 [label=<PC1 &le; 0.931<br/>gini = 0.219<br/>samples = 24<br/>value = [21, 3]<br/>class = <=50K>, fillcolor="#e99355"] ;
583 -> 584 ;
585 [label=<occupation_Sales &le; 0.5<br/>gini = 0.159<br/>samples = 23<br/>value = [21, 2]<br/>class = <=50K>, fillcolor="#e78d4c"] ;
584 -> 585 ;
586 [label=<PC3 &le; -0.699<br/>gini = 0.095<br/>samples = 20<br/>value = [19, 1]<br/>class = <=50K>, fillcolor="#e68843"] ;
585 -> 586 ;
587 [label=<PC3 &le; -0.716<br/>gini = 0.375<br/>samples = 4<br/>value = [3, 1]<br/>class = <=50K>, fillcolor="#eeab7b"] ;
586 -> 587 ;
588 [label=<gini = 0.0<br/>samples = 3<br/>value = [3, 0]<br/>class = <=50K>, fillcolor="#e58139"] ;
587 -> 588 ;
589 [label=<gini = 0.0<br/>samples = 1<br/>value = [0, 1]<br/>class = >50K>, fillcolor="#399de5"] ;
587 -> 589 ;
590 [label=<gini = 0.0<br/>samples = 16<br/>value = [16, 0]<br/>class = <=50K>, fillcolor="#e58139"] ;
586 -> 590 ;
591 [label=<education_Assoc-voc &le; 0.5<br/>gini = 0.444<br/>samples = 3<br/>value = [2, 1]<br/>class = <=50K>, fillcolor="#f2c09c"] ;
585 -> 591 ;
592 [label=<gini = 0.0<br/>samples = 2<br/>value = [2, 0]<br/>class = <=50K>, fillcolor="#e58139"] ;
591 -> 592 ;
593 [label=<gini = 0.0<br/>samples = 1<br/>value = [0, 1]<br/>class = >50K>, fillcolor="#399de5"] ;
591 -> 593 ;
594 [label=<gini = 0.0<br/>samples = 1<br/>value = [0, 1]<br/>class = >50K>, fillcolor="#399de5"] ;
584 -> 594 ;
595 [label=<gini = 0.0<br/>samples = 66<br/>value = [66, 0]<br/>class = <=50K>, fillcolor="#e58139"] ;
583 -> 595 ;
596 [label=<PC4 &le; -0.298<br/>gini = 0.305<br/>samples = 16<br/>value = [13, 3]<br/>class = <=50K>, fillcolor="#eb9e67"] ;
582 -> 596 ;
597 [label=<workclass_Local-gov &le; 0.5<br/>gini = 0.444<br/>samples = 3<br/>value = [1, 2]<br/>class = >50K>, fillcolor="#9ccef2"] ;
596 -> 597 ;
598 [label=<gini = 0.0<br/>samples = 2<br/>value = [0, 2]<br/>class = >50K>, fillcolor="#399de5"] ;
597 -> 598 ;
599 [label=<gini = 0.0<br/>samples = 1<br/>value = [1, 0]<br/>class = <=50K>, fillcolor="#e58139"] ;
597 -> 599 ;
600 [label=<PC2 &le; 0.945<br/>gini = 0.142<br/>samples = 13<br/>value = [12, 1]<br/>class = <=50K>, fillcolor="#e78c49"] ;
596 -> 600 ;
601 [label=<gini = 0.0<br/>samples = 1<br/>value = [0, 1]<br/>class = >50K>, fillcolor="#399de5"] ;
600 -> 601 ;
602 [label=<gini = 0.0<br/>samples = 12<br/>value = [12, 0]<br/>class = <=50K>, fillcolor="#e58139"] ;
600 -> 602 ;
603 [label=<gini = 0.0<br/>samples = 1<br/>value = [0, 1]<br/>class = >50K>, fillcolor="#399de5"] ;
573 -> 603 ;
604 [label=<PC4 &le; 0.361<br/>gini = 0.428<br/>samples = 29<br/>value = [20, 9]<br/>class = <=50K>, fillcolor="#f1ba92"] ;
572 -> 604 ;
605 [label=<PC4 &le; -0.915<br/>gini = 0.208<br/>samples = 17<br/>value = [15, 2]<br/>class = <=50K>, fillcolor="#e89253"] ;
604 -> 605 ;
606 [label=<gini = 0.0<br/>samples = 1<br/>value = [0, 1]<br/>class = >50K>, fillcolor="#399de5"] ;
605 -> 606 ;
607 [label=<PC1 &le; 1.31<br/>gini = 0.117<br/>samples = 16<br/>value = [15, 1]<br/>class = <=50K>, fillcolor="#e78946"] ;
605 -> 607 ;
608 [label=<gini = 0.0<br/>samples = 15<br/>value = [15, 0]<br/>class = <=50K>, fillcolor="#e58139"] ;
607 -> 608 ;
609 [label=<gini = 0.0<br/>samples = 1<br/>value = [0, 1]<br/>class = >50K>, fillcolor="#399de5"] ;
607 -> 609 ;
610 [label=<PC1 &le; 1.232<br/>gini = 0.486<br/>samples = 12<br/>value = [5, 7]<br/>class = >50K>, fillcolor="#c6e3f8"] ;
604 -> 610 ;
611 [label=<workclass_Private &le; 0.5<br/>gini = 0.42<br/>samples = 10<br/>value = [3, 7]<br/>class = >50K>, fillcolor="#8ec7f0"] ;
610 -> 611 ;
612 [label=<gini = 0.0<br/>samples = 2<br/>value = [2, 0]<br/>class = <=50K>, fillcolor="#e58139"] ;
611 -> 612 ;
613 [label=<PC4 &le; 2.733<br/>gini = 0.219<br/>samples = 8<br/>value = [1, 7]<br/>class = >50K>, fillcolor="#55abe9"] ;
611 -> 613 ;
614 [label=<gini = 0.0<br/>samples = 7<br/>value = [0, 7]<br/>class = >50K>, fillcolor="#399de5"] ;
613 -> 614 ;
615 [label=<gini = 0.0<br/>samples = 1<br/>value = [1, 0]<br/>class = <=50K>, fillcolor="#e58139"] ;
613 -> 615 ;
616 [label=<gini = 0.0<br/>samples = 2<br/>value = [2, 0]<br/>class = <=50K>, fillcolor="#e58139"] ;
610 -> 616 ;
617 [label=<PC1 &le; 1.271<br/>gini = 0.306<br/>samples = 53<br/>value = [43, 10]<br/>class = <=50K>, fillcolor="#eb9e67"] ;
487 -> 617 ;
618 [label=<education_Assoc-acdm &le; 0.5<br/>gini = 0.265<br/>samples = 51<br/>value = [43, 8]<br/>class = <=50K>, fillcolor="#ea985e"] ;
617 -> 618 ;
619 [label=<PC4 &le; -1.112<br/>gini = 0.19<br/>samples = 47<br/>value = [42, 5]<br/>class = <=50K>, fillcolor="#e89051"] ;
618 -> 619 ;
620 [label=<gini = 0.0<br/>samples = 1<br/>value = [0, 1]<br/>class = >50K>, fillcolor="#399de5"] ;
619 -> 620 ;
621 [label=<race_Asian-Pac-Islander &le; 0.5<br/>gini = 0.159<br/>samples = 46<br/>value = [42, 4]<br/>class = <=50K>, fillcolor="#e78d4c"] ;
619 -> 621 ;
622 [label=<PC3 &le; -0.4<br/>gini = 0.124<br/>samples = 45<br/>value = [42, 3]<br/>class = <=50K>, fillcolor="#e78a47"] ;
621 -> 622 ;
623 [label=<PC1 &le; 0.873<br/>gini = 0.5<br/>samples = 2<br/>value = [1, 1]<br/>class = <=50K>, fillcolor="#ffffff"] ;
622 -> 623 ;
624 [label=<gini = 0.0<br/>samples = 1<br/>value = [0, 1]<br/>class = >50K>, fillcolor="#399de5"] ;
623 -> 624 ;
625 [label=<gini = 0.0<br/>samples = 1<br/>value = [1, 0]<br/>class = <=50K>, fillcolor="#e58139"] ;
623 -> 625 ;
626 [label=<occupation_Tech-support &le; 0.5<br/>gini = 0.089<br/>samples = 43<br/>value = [41, 2]<br/>class = <=50K>, fillcolor="#e68743"] ;
622 -> 626 ;
627 [label=<workclass_Self-emp-inc &le; 0.5<br/>gini = 0.049<br/>samples = 40<br/>value = [39, 1]<br/>class = <=50K>, fillcolor="#e6843e"] ;
626 -> 627 ;
628 [label=<gini = 0.0<br/>samples = 35<br/>value = [35, 0]<br/>class = <=50K>, fillcolor="#e58139"] ;
627 -> 628 ;
629 [label=<PC1 &le; 0.408<br/>gini = 0.32<br/>samples = 5<br/>value = [4, 1]<br/>class = <=50K>, fillcolor="#eca06a"] ;
627 -> 629 ;
630 [label=<gini = 0.0<br/>samples = 3<br/>value = [3, 0]<br/>class = <=50K>, fillcolor="#e58139"] ;
629 -> 630 ;
631 [label=<PC3 &le; 1.422<br/>gini = 0.5<br/>samples = 2<br/>value = [1, 1]<br/>class = <=50K>, fillcolor="#ffffff"] ;
629 -> 631 ;
632 [label=<gini = 0.0<br/>samples = 1<br/>value = [0, 1]<br/>class = >50K>, fillcolor="#399de5"] ;
631 -> 632 ;
633 [label=<gini = 0.0<br/>samples = 1<br/>value = [1, 0]<br/>class = <=50K>, fillcolor="#e58139"] ;
631 -> 633 ;
634 [label=<PC4 &le; 0.27<br/>gini = 0.444<br/>samples = 3<br/>value = [2, 1]<br/>class = <=50K>, fillcolor="#f2c09c"] ;
626 -> 634 ;
635 [label=<gini = 0.0<br/>samples = 2<br/>value = [2, 0]<br/>class = <=50K>, fillcolor="#e58139"] ;
634 -> 635 ;
636 [label=<gini = 0.0<br/>samples = 1<br/>value = [0, 1]<br/>class = >50K>, fillcolor="#399de5"] ;
634 -> 636 ;
637 [label=<gini = 0.0<br/>samples = 1<br/>value = [0, 1]<br/>class = >50K>, fillcolor="#399de5"] ;
621 -> 637 ;
638 [label=<PC1 &le; 0.109<br/>gini = 0.375<br/>samples = 4<br/>value = [1, 3]<br/>class = >50K>, fillcolor="#7bbeee"] ;
618 -> 638 ;
639 [label=<gini = 0.0<br/>samples = 1<br/>value = [1, 0]<br/>class = <=50K>, fillcolor="#e58139"] ;
638 -> 639 ;
640 [label=<gini = 0.0<br/>samples = 3<br/>value = [0, 3]<br/>class = >50K>, fillcolor="#399de5"] ;
638 -> 640 ;
641 [label=<gini = 0.0<br/>samples = 2<br/>value = [0, 2]<br/>class = >50K>, fillcolor="#399de5"] ;
617 -> 641 ;
642 [label=<gini = 0.0<br/>samples = 82<br/>value = [82, 0]<br/>class = <=50K>, fillcolor="#e58139"] ;
486 -> 642 ;
643 [label=<PC1 &le; -0.011<br/>gini = 0.047<br/>samples = 209<br/>value = [204, 5]<br/>class = <=50K>, fillcolor="#e6843e"] ;
485 -> 643 ;
644 [label=<gini = 0.0<br/>samples = 1<br/>value = [0, 1]<br/>class = >50K>, fillcolor="#399de5"] ;
643 -> 644 ;
645 [label=<PC4 &le; -1.143<br/>gini = 0.038<br/>samples = 208<br/>value = [204, 4]<br/>class = <=50K>, fillcolor="#e6833d"] ;
643 -> 645 ;
646 [label=<PC4 &le; -1.144<br/>gini = 0.444<br/>samples = 3<br/>value = [2, 1]<br/>class = <=50K>, fillcolor="#f2c09c"] ;
645 -> 646 ;
647 [label=<gini = 0.0<br/>samples = 2<br/>value = [2, 0]<br/>class = <=50K>, fillcolor="#e58139"] ;
646 -> 647 ;
648 [label=<gini = 0.0<br/>samples = 1<br/>value = [0, 1]<br/>class = >50K>, fillcolor="#399de5"] ;
646 -> 648 ;
649 [label=<PC3 &le; -1.093<br/>gini = 0.029<br/>samples = 205<br/>value = [202, 3]<br/>class = <=50K>, fillcolor="#e5833c"] ;
645 -> 649 ;
650 [label=<marital-status_Never-married &le; 0.5<br/>gini = 0.32<br/>samples = 5<br/>value = [4, 1]<br/>class = <=50K>, fillcolor="#eca06a"] ;
649 -> 650 ;
651 [label=<gini = 0.0<br/>samples = 1<br/>value = [0, 1]<br/>class = >50K>, fillcolor="#399de5"] ;
650 -> 651 ;
652 [label=<gini = 0.0<br/>samples = 4<br/>value = [4, 0]<br/>class = <=50K>, fillcolor="#e58139"] ;
650 -> 652 ;
653 [label=<PC4 &le; 0.5<br/>gini = 0.02<br/>samples = 200<br/>value = [198, 2]<br/>class = <=50K>, fillcolor="#e5823b"] ;
649 -> 653 ;
654 [label=<gini = 0.0<br/>samples = 169<br/>value = [169, 0]<br/>class = <=50K>, fillcolor="#e58139"] ;
653 -> 654 ;
655 [label=<PC4 &le; 0.52<br/>gini = 0.121<br/>samples = 31<br/>value = [29, 2]<br/>class = <=50K>, fillcolor="#e78a47"] ;
653 -> 655 ;
656 [label=<gini = 0.0<br/>samples = 1<br/>value = [0, 1]<br/>class = >50K>, fillcolor="#399de5"] ;
655 -> 656 ;
657 [label=<PC1 &le; 1.17<br/>gini = 0.064<br/>samples = 30<br/>value = [29, 1]<br/>class = <=50K>, fillcolor="#e68540"] ;
655 -> 657 ;
658 [label=<gini = 0.0<br/>samples = 23<br/>value = [23, 0]<br/>class = <=50K>, fillcolor="#e58139"] ;
657 -> 658 ;
659 [label=<sex_Male &le; 0.5<br/>gini = 0.245<br/>samples = 7<br/>value = [6, 1]<br/>class = <=50K>, fillcolor="#e9965a"] ;
657 -> 659 ;
660 [label=<gini = 0.0<br/>samples = 6<br/>value = [6, 0]<br/>class = <=50K>, fillcolor="#e58139"] ;
659 -> 660 ;
661 [label=<gini = 0.0<br/>samples = 1<br/>value = [0, 1]<br/>class = >50K>, fillcolor="#399de5"] ;
659 -> 661 ;
662 [label=<occupation_Craft-repair &le; 0.5<br/>gini = 0.053<br/>samples = 518<br/>value = [504, 14]<br/>class = <=50K>, fillcolor="#e6843e"] ;
484 -> 662 ;
663 [label=<PC4 &le; 1.971<br/>gini = 0.04<br/>samples = 444<br/>value = [435, 9]<br/>class = <=50K>, fillcolor="#e6843d"] ;
662 -> 663 ;
664 [label=<occupation_Tech-support &le; 0.5<br/>gini = 0.032<br/>samples = 429<br/>value = [422, 7]<br/>class = <=50K>, fillcolor="#e5833c"] ;
663 -> 664 ;
665 [label=<PC1 &le; 0.093<br/>gini = 0.028<br/>samples = 423<br/>value = [417, 6]<br/>class = <=50K>, fillcolor="#e5833c"] ;
664 -> 665 ;
666 [label=<PC1 &le; 0.092<br/>gini = 0.078<br/>samples = 74<br/>value = [71, 3]<br/>class = <=50K>, fillcolor="#e68641"] ;
665 -> 666 ;
667 [label=<PC1 &le; 0.084<br/>gini = 0.053<br/>samples = 73<br/>value = [71, 2]<br/>class = <=50K>, fillcolor="#e6853f"] ;
666 -> 667 ;
668 [label=<gini = 0.0<br/>samples = 64<br/>value = [64, 0]<br/>class = <=50K>, fillcolor="#e58139"] ;
667 -> 668 ;
669 [label=<PC1 &le; 0.084<br/>gini = 0.346<br/>samples = 9<br/>value = [7, 2]<br/>class = <=50K>, fillcolor="#eca572"] ;
667 -> 669 ;
670 [label=<gini = 0.0<br/>samples = 1<br/>value = [0, 1]<br/>class = >50K>, fillcolor="#399de5"] ;
669 -> 670 ;
671 [label=<occupation_Prof-specialty &le; 0.5<br/>gini = 0.219<br/>samples = 8<br/>value = [7, 1]<br/>class = <=50K>, fillcolor="#e99355"] ;
669 -> 671 ;
672 [label=<gini = 0.0<br/>samples = 7<br/>value = [7, 0]<br/>class = <=50K>, fillcolor="#e58139"] ;
671 -> 672 ;
673 [label=<gini = 0.0<br/>samples = 1<br/>value = [0, 1]<br/>class = >50K>, fillcolor="#399de5"] ;
671 -> 673 ;
674 [label=<gini = 0.0<br/>samples = 1<br/>value = [0, 1]<br/>class = >50K>, fillcolor="#399de5"] ;
666 -> 674 ;
675 [label=<PC3 &le; 1.94<br/>gini = 0.017<br/>samples = 349<br/>value = [346, 3]<br/>class = <=50K>, fillcolor="#e5823b"] ;
665 -> 675 ;
676 [label=<PC3 &le; 0.858<br/>gini = 0.012<br/>samples = 339<br/>value = [337, 2]<br/>class = <=50K>, fillcolor="#e5823a"] ;
675 -> 676 ;
677 [label=<gini = 0.0<br/>samples = 227<br/>value = [227, 0]<br/>class = <=50K>, fillcolor="#e58139"] ;
676 -> 677 ;
678 [label=<PC3 &le; 0.86<br/>gini = 0.035<br/>samples = 112<br/>value = [110, 2]<br/>class = <=50K>, fillcolor="#e5833d"] ;
676 -> 678 ;
679 [label=<gini = 0.0<br/>samples = 1<br/>value = [0, 1]<br/>class = >50K>, fillcolor="#399de5"] ;
678 -> 679 ;
680 [label=<PC2 &le; 0.176<br/>gini = 0.018<br/>samples = 111<br/>value = [110, 1]<br/>class = <=50K>, fillcolor="#e5823b"] ;
678 -> 680 ;
681 [label=<gini = 0.0<br/>samples = 104<br/>value = [104, 0]<br/>class = <=50K>, fillcolor="#e58139"] ;
680 -> 681 ;
682 [label=<PC2 &le; 0.215<br/>gini = 0.245<br/>samples = 7<br/>value = [6, 1]<br/>class = <=50K>, fillcolor="#e9965a"] ;
680 -> 682 ;
683 [label=<gini = 0.0<br/>samples = 1<br/>value = [0, 1]<br/>class = >50K>, fillcolor="#399de5"] ;
682 -> 683 ;
684 [label=<gini = 0.0<br/>samples = 6<br/>value = [6, 0]<br/>class = <=50K>, fillcolor="#e58139"] ;
682 -> 684 ;
685 [label=<PC3 &le; 1.987<br/>gini = 0.18<br/>samples = 10<br/>value = [9, 1]<br/>class = <=50K>, fillcolor="#e88f4f"] ;
675 -> 685 ;
686 [label=<gini = 0.0<br/>samples = 1<br/>value = [0, 1]<br/>class = >50K>, fillcolor="#399de5"] ;
685 -> 686 ;
687 [label=<gini = 0.0<br/>samples = 9<br/>value = [9, 0]<br/>class = <=50K>, fillcolor="#e58139"] ;
685 -> 687 ;
688 [label=<PC1 &le; 0.555<br/>gini = 0.278<br/>samples = 6<br/>value = [5, 1]<br/>class = <=50K>, fillcolor="#ea9a61"] ;
664 -> 688 ;
689 [label=<gini = 0.0<br/>samples = 4<br/>value = [4, 0]<br/>class = <=50K>, fillcolor="#e58139"] ;
688 -> 689 ;
690 [label=<relationship_Other-relative &le; 0.5<br/>gini = 0.5<br/>samples = 2<br/>value = [1, 1]<br/>class = <=50K>, fillcolor="#ffffff"] ;
688 -> 690 ;
691 [label=<gini = 0.0<br/>samples = 1<br/>value = [0, 1]<br/>class = >50K>, fillcolor="#399de5"] ;
690 -> 691 ;
692 [label=<gini = 0.0<br/>samples = 1<br/>value = [1, 0]<br/>class = <=50K>, fillcolor="#e58139"] ;
690 -> 692 ;
693 [label=<PC4 &le; 1.972<br/>gini = 0.231<br/>samples = 15<br/>value = [13, 2]<br/>class = <=50K>, fillcolor="#e99457"] ;
663 -> 693 ;
694 [label=<gini = 0.0<br/>samples = 1<br/>value = [0, 1]<br/>class = >50K>, fillcolor="#399de5"] ;
693 -> 694 ;
695 [label=<PC4 &le; 1.978<br/>gini = 0.133<br/>samples = 14<br/>value = [13, 1]<br/>class = <=50K>, fillcolor="#e78b48"] ;
693 -> 695 ;
696 [label=<occupation_Sales &le; 0.5<br/>gini = 0.444<br/>samples = 3<br/>value = [2, 1]<br/>class = <=50K>, fillcolor="#f2c09c"] ;
695 -> 696 ;
697 [label=<gini = 0.0<br/>samples = 2<br/>value = [2, 0]<br/>class = <=50K>, fillcolor="#e58139"] ;
696 -> 697 ;
698 [label=<gini = 0.0<br/>samples = 1<br/>value = [0, 1]<br/>class = >50K>, fillcolor="#399de5"] ;
696 -> 698 ;
699 [label=<gini = 0.0<br/>samples = 11<br/>value = [11, 0]<br/>class = <=50K>, fillcolor="#e58139"] ;
695 -> 699 ;
700 [label=<PC4 &le; -0.074<br/>gini = 0.126<br/>samples = 74<br/>value = [69, 5]<br/>class = <=50K>, fillcolor="#e78a47"] ;
662 -> 700 ;
701 [label=<gini = 0.0<br/>samples = 1<br/>value = [0, 1]<br/>class = >50K>, fillcolor="#399de5"] ;
700 -> 701 ;
702 [label=<PC2 &le; -1.292<br/>gini = 0.104<br/>samples = 73<br/>value = [69, 4]<br/>class = <=50K>, fillcolor="#e78844"] ;
700 -> 702 ;
703 [label=<PC2 &le; -1.315<br/>gini = 0.278<br/>samples = 24<br/>value = [20, 4]<br/>class = <=50K>, fillcolor="#ea9a61"] ;
702 -> 703 ;
704 [label=<PC2 &le; -1.609<br/>gini = 0.227<br/>samples = 23<br/>value = [20, 3]<br/>class = <=50K>, fillcolor="#e99457"] ;
703 -> 704 ;
705 [label=<gini = 0.0<br/>samples = 12<br/>value = [12, 0]<br/>class = <=50K>, fillcolor="#e58139"] ;
704 -> 705 ;
706 [label=<PC2 &le; -1.56<br/>gini = 0.397<br/>samples = 11<br/>value = [8, 3]<br/>class = <=50K>, fillcolor="#efb083"] ;
704 -> 706 ;
707 [label=<PC4 &le; 0.196<br/>gini = 0.444<br/>samples = 3<br/>value = [1, 2]<br/>class = >50K>, fillcolor="#9ccef2"] ;
706 -> 707 ;
708 [label=<gini = 0.0<br/>samples = 2<br/>value = [0, 2]<br/>class = >50K>, fillcolor="#399de5"] ;
707 -> 708 ;
709 [label=<gini = 0.0<br/>samples = 1<br/>value = [1, 0]<br/>class = <=50K>, fillcolor="#e58139"] ;
707 -> 709 ;
710 [label=<PC4 &le; 0.195<br/>gini = 0.219<br/>samples = 8<br/>value = [7, 1]<br/>class = <=50K>, fillcolor="#e99355"] ;
706 -> 710 ;
711 [label=<gini = 0.0<br/>samples = 7<br/>value = [7, 0]<br/>class = <=50K>, fillcolor="#e58139"] ;
710 -> 711 ;
712 [label=<gini = 0.0<br/>samples = 1<br/>value = [0, 1]<br/>class = >50K>, fillcolor="#399de5"] ;
710 -> 712 ;
713 [label=<gini = 0.0<br/>samples = 1<br/>value = [0, 1]<br/>class = >50K>, fillcolor="#399de5"] ;
703 -> 713 ;
714 [label=<gini = 0.0<br/>samples = 49<br/>value = [49, 0]<br/>class = <=50K>, fillcolor="#e58139"] ;
702 -> 714 ;
715 [label=<occupation_Exec-managerial &le; 0.5<br/>gini = 0.5<br/>samples = 2<br/>value = [1, 1]<br/>class = <=50K>, fillcolor="#ffffff"] ;
439 -> 715 ;
716 [label=<gini = 0.0<br/>samples = 1<br/>value = [1, 0]<br/>class = <=50K>, fillcolor="#e58139"] ;
715 -> 716 ;
717 [label=<gini = 0.0<br/>samples = 1<br/>value = [0, 1]<br/>class = >50K>, fillcolor="#399de5"] ;
715 -> 717 ;
718 [label=<relationship_Not-in-family &le; 0.5<br/>gini = 0.18<br/>samples = 290<br/>value = [261, 29]<br/>class = <=50K>, fillcolor="#e88f4f"] ;
438 -> 718 ;
719 [label=<workclass_Self-emp-not-inc &le; 0.5<br/>gini = 0.041<br/>samples = 96<br/>value = [94, 2]<br/>class = <=50K>, fillcolor="#e6843d"] ;
718 -> 719 ;
720 [label=<gini = 0.0<br/>samples = 91<br/>value = [91, 0]<br/>class = <=50K>, fillcolor="#e58139"] ;
719 -> 720 ;
721 [label=<PC4 &le; 0.557<br/>gini = 0.48<br/>samples = 5<br/>value = [3, 2]<br/>class = <=50K>, fillcolor="#f6d5bd"] ;
719 -> 721 ;
722 [label=<gini = 0.0<br/>samples = 2<br/>value = [0, 2]<br/>class = >50K>, fillcolor="#399de5"] ;
721 -> 722 ;
723 [label=<gini = 0.0<br/>samples = 3<br/>value = [3, 0]<br/>class = <=50K>, fillcolor="#e58139"] ;
721 -> 723 ;
724 [label=<PC3 &le; 1.51<br/>gini = 0.24<br/>samples = 194<br/>value = [167, 27]<br/>class = <=50K>, fillcolor="#e99559"] ;
718 -> 724 ;
725 [label=<PC2 &le; 1.126<br/>gini = 0.212<br/>samples = 183<br/>value = [161, 22]<br/>class = <=50K>, fillcolor="#e99254"] ;
724 -> 725 ;
726 [label=<gini = 0.0<br/>samples = 1<br/>value = [0, 1]<br/>class = >50K>, fillcolor="#399de5"] ;
725 -> 726 ;
727 [label=<PC1 &le; 0.911<br/>gini = 0.204<br/>samples = 182<br/>value = [161, 21]<br/>class = <=50K>, fillcolor="#e89153"] ;
725 -> 727 ;
728 [label=<occupation_Tech-support &le; 0.5<br/>gini = 0.146<br/>samples = 126<br/>value = [116, 10]<br/>class = <=50K>, fillcolor="#e78c4a"] ;
727 -> 728 ;
729 [label=<PC2 &le; 1.165<br/>gini = 0.123<br/>samples = 121<br/>value = [113, 8]<br/>class = <=50K>, fillcolor="#e78a47"] ;
728 -> 729 ;
730 [label=<PC2 &le; 1.153<br/>gini = 0.48<br/>samples = 5<br/>value = [3, 2]<br/>class = <=50K>, fillcolor="#f6d5bd"] ;
729 -> 730 ;
731 [label=<gini = 0.0<br/>samples = 2<br/>value = [2, 0]<br/>class = <=50K>, fillcolor="#e58139"] ;
730 -> 731 ;
732 [label=<PC1 &le; 0.002<br/>gini = 0.444<br/>samples = 3<br/>value = [1, 2]<br/>class = >50K>, fillcolor="#9ccef2"] ;
730 -> 732 ;
733 [label=<gini = 0.0<br/>samples = 1<br/>value = [1, 0]<br/>class = <=50K>, fillcolor="#e58139"] ;
732 -> 733 ;
734 [label=<gini = 0.0<br/>samples = 2<br/>value = [0, 2]<br/>class = >50K>, fillcolor="#399de5"] ;
732 -> 734 ;
735 [label=<occupation_Craft-repair &le; 0.5<br/>gini = 0.098<br/>samples = 116<br/>value = [110, 6]<br/>class = <=50K>, fillcolor="#e68844"] ;
729 -> 735 ;
736 [label=<workclass_Self-emp-inc &le; 0.5<br/>gini = 0.058<br/>samples = 101<br/>value = [98, 3]<br/>class = <=50K>, fillcolor="#e6853f"] ;
735 -> 736 ;
737 [label=<PC3 &le; 0.829<br/>gini = 0.041<br/>samples = 95<br/>value = [93, 2]<br/>class = <=50K>, fillcolor="#e6843d"] ;
736 -> 737 ;
738 [label=<marital-status_Never-married &le; 0.5<br/>gini = 0.023<br/>samples = 85<br/>value = [84, 1]<br/>class = <=50K>, fillcolor="#e5823b"] ;
737 -> 738 ;
739 [label=<occupation_Exec-managerial &le; 0.5<br/>gini = 0.133<br/>samples = 14<br/>value = [13, 1]<br/>class = <=50K>, fillcolor="#e78b48"] ;
738 -> 739 ;
740 [label=<gini = 0.0<br/>samples = 10<br/>value = [10, 0]<br/>class = <=50K>, fillcolor="#e58139"] ;
739 -> 740 ;
741 [label=<education_Some-college &le; 0.5<br/>gini = 0.375<br/>samples = 4<br/>value = [3, 1]<br/>class = <=50K>, fillcolor="#eeab7b"] ;
739 -> 741 ;
742 [label=<gini = 0.0<br/>samples = 2<br/>value = [2, 0]<br/>class = <=50K>, fillcolor="#e58139"] ;
741 -> 742 ;
743 [label=<PC3 &le; -0.038<br/>gini = 0.5<br/>samples = 2<br/>value = [1, 1]<br/>class = <=50K>, fillcolor="#ffffff"] ;
741 -> 743 ;
744 [label=<gini = 0.0<br/>samples = 1<br/>value = [1, 0]<br/>class = <=50K>, fillcolor="#e58139"] ;
743 -> 744 ;
745 [label=<gini = 0.0<br/>samples = 1<br/>value = [0, 1]<br/>class = >50K>, fillcolor="#399de5"] ;
743 -> 745 ;
746 [label=<gini = 0.0<br/>samples = 71<br/>value = [71, 0]<br/>class = <=50K>, fillcolor="#e58139"] ;
738 -> 746 ;
747 [label=<PC3 &le; 0.907<br/>gini = 0.18<br/>samples = 10<br/>value = [9, 1]<br/>class = <=50K>, fillcolor="#e88f4f"] ;
737 -> 747 ;
748 [label=<gini = 0.0<br/>samples = 1<br/>value = [0, 1]<br/>class = >50K>, fillcolor="#399de5"] ;
747 -> 748 ;
749 [label=<gini = 0.0<br/>samples = 9<br/>value = [9, 0]<br/>class = <=50K>, fillcolor="#e58139"] ;
747 -> 749 ;
750 [label=<PC3 &le; -0.97<br/>gini = 0.278<br/>samples = 6<br/>value = [5, 1]<br/>class = <=50K>, fillcolor="#ea9a61"] ;
736 -> 750 ;
751 [label=<gini = 0.0<br/>samples = 1<br/>value = [0, 1]<br/>class = >50K>, fillcolor="#399de5"] ;
750 -> 751 ;
752 [label=<gini = 0.0<br/>samples = 5<br/>value = [5, 0]<br/>class = <=50K>, fillcolor="#e58139"] ;
750 -> 752 ;
753 [label=<PC1 &le; 0.807<br/>gini = 0.32<br/>samples = 15<br/>value = [12, 3]<br/>class = <=50K>, fillcolor="#eca06a"] ;
735 -> 753 ;
754 [label=<workclass_Self-emp-not-inc &le; 0.5<br/>gini = 0.245<br/>samples = 14<br/>value = [12, 2]<br/>class = <=50K>, fillcolor="#e9965a"] ;
753 -> 754 ;
755 [label=<PC4 &le; 1.912<br/>gini = 0.142<br/>samples = 13<br/>value = [12, 1]<br/>class = <=50K>, fillcolor="#e78c49"] ;
754 -> 755 ;
756 [label=<gini = 0.0<br/>samples = 8<br/>value = [8, 0]<br/>class = <=50K>, fillcolor="#e58139"] ;
755 -> 756 ;
757 [label=<PC2 &le; 1.26<br/>gini = 0.32<br/>samples = 5<br/>value = [4, 1]<br/>class = <=50K>, fillcolor="#eca06a"] ;
755 -> 757 ;
758 [label=<gini = 0.0<br/>samples = 4<br/>value = [4, 0]<br/>class = <=50K>, fillcolor="#e58139"] ;
757 -> 758 ;
759 [label=<gini = 0.0<br/>samples = 1<br/>value = [0, 1]<br/>class = >50K>, fillcolor="#399de5"] ;
757 -> 759 ;
760 [label=<gini = 0.0<br/>samples = 1<br/>value = [0, 1]<br/>class = >50K>, fillcolor="#399de5"] ;
754 -> 760 ;
761 [label=<gini = 0.0<br/>samples = 1<br/>value = [0, 1]<br/>class = >50K>, fillcolor="#399de5"] ;
753 -> 761 ;
762 [label=<PC2 &le; 2.14<br/>gini = 0.48<br/>samples = 5<br/>value = [3, 2]<br/>class = <=50K>, fillcolor="#f6d5bd"] ;
728 -> 762 ;
763 [label=<gini = 0.0<br/>samples = 3<br/>value = [3, 0]<br/>class = <=50K>, fillcolor="#e58139"] ;
762 -> 763 ;
764 [label=<gini = 0.0<br/>samples = 2<br/>value = [0, 2]<br/>class = >50K>, fillcolor="#399de5"] ;
762 -> 764 ;
765 [label=<marital-status_Separated &le; 0.5<br/>gini = 0.316<br/>samples = 56<br/>value = [45, 11]<br/>class = <=50K>, fillcolor="#eba069"] ;
727 -> 765 ;
766 [label=<PC1 &le; 0.918<br/>gini = 0.256<br/>samples = 53<br/>value = [45, 8]<br/>class = <=50K>, fillcolor="#ea975c"] ;
765 -> 766 ;
767 [label=<gini = 0.0<br/>samples = 1<br/>value = [0, 1]<br/>class = >50K>, fillcolor="#399de5"] ;
766 -> 767 ;
768 [label=<occupation_Sales &le; 0.5<br/>gini = 0.233<br/>samples = 52<br/>value = [45, 7]<br/>class = <=50K>, fillcolor="#e99558"] ;
766 -> 768 ;
769 [label=<PC4 &le; 0.253<br/>gini = 0.172<br/>samples = 42<br/>value = [38, 4]<br/>class = <=50K>, fillcolor="#e88e4e"] ;
768 -> 769 ;
770 [label=<PC3 &le; 0.205<br/>gini = 0.397<br/>samples = 11<br/>value = [8, 3]<br/>class = <=50K>, fillcolor="#efb083"] ;
769 -> 770 ;
771 [label=<PC1 &le; 0.967<br/>gini = 0.198<br/>samples = 9<br/>value = [8, 1]<br/>class = <=50K>, fillcolor="#e89152"] ;
770 -> 771 ;
772 [label=<gini = 0.0<br/>samples = 1<br/>value = [0, 1]<br/>class = >50K>, fillcolor="#399de5"] ;
771 -> 772 ;
773 [label=<gini = 0.0<br/>samples = 8<br/>value = [8, 0]<br/>class = <=50K>, fillcolor="#e58139"] ;
771 -> 773 ;
774 [label=<gini = 0.0<br/>samples = 2<br/>value = [0, 2]<br/>class = >50K>, fillcolor="#399de5"] ;
770 -> 774 ;
775 [label=<education_Assoc-acdm &le; 0.5<br/>gini = 0.062<br/>samples = 31<br/>value = [30, 1]<br/>class = <=50K>, fillcolor="#e68540"] ;
769 -> 775 ;
776 [label=<gini = 0.0<br/>samples = 26<br/>value = [26, 0]<br/>class = <=50K>, fillcolor="#e58139"] ;
775 -> 776 ;
